{"learner":{"attributes":{"scikit_learn":"{\"_estimator_type\": \"regressor\"}"},"feature_names":["second","minute","hour","day","lag1","lag2","lag3"],"feature_types":["int","int","int","int","float","float","float"],"gradient_booster":{"model":{"gbtree_model_param":{"num_parallel_tree":"1","num_trees":"750"},"iteration_indptr":[0,1,2,3,4,5,6,7,8,9,10,11,12,13,14,15,16,17,18,19,20,21,22,23,24,25,26,27,28,29,30,31,32,33,34,35,36,37,38,39,40,41,42,43,44,45,46,47,48,49,50,51,52,53,54,55,56,57,58,59,60,61,62,63,64,65,66,67,68,69,70,71,72,73,74,75,76,77,78,79,80,81,82,83,84,85,86,87,88,89,90,91,92,93,94,95,96,97,98,99,100,101,102,103,104,105,106,107,108,109,110,111,112,113,114,115,116,117,118,119,120,121,122,123,124,125,126,127,128,129,130,131,132,133,134,135,136,137,138,139,140,141,142,143,144,145,146,147,148,149,150,151,152,153,154,155,156,157,158,159,160,161,162,163,164,165,166,167,168,169,170,171,172,173,174,175,176,177,178,179,180,181,182,183,184,185,186,187,188,189,190,191,192,193,194,195,196,197,198,199,200,201,202,203,204,205,206,207,208,209,210,211,212,213,214,215,216,217,218,219,220,221,222,223,224,225,226,227,228,229,230,231,232,233,234,235,236,237,238,239,240,241,242,243,244,245,246,247,248,249,250,251,252,253,254,255,256,257,258,259,260,261,262,263,264,265,266,267,268,269,270,271,272,273,274,275,276,277,278,279,280,281,282,283,284,285,286,287,288,289,290,291,292,293,294,295,296,297,298,299,300,301,302,303,304,305,306,307,308,309,310,311,312,313,314,315,316,317,318,319,320,321,322,323,324,325,326,327,328,329,330,331,332,333,334,335,336,337,338,339,340,341,342,343,344,345,346,347,348,349,350,351,352,353,354,355,356,357,358,359,360,361,362,363,364,365,366,367,368,369,370,371,372,373,374,375,376,377,378,379,380,381,382,383,384,385,386,387,388,389,390,391,392,393,394,395,396,397,398,399,400,401,402,403,404,405,406,407,408,409,410,411,412,413,414,415,416,417,418,419,420,421,422,423,424,425,426,427,428,429,430,431,432,433,434,435,436,437,438,439,440,441,442,443,444,445,446,447,448,449,450,451,452,453,454,455,456,457,458,459,460,461,462,463,464,465,466,467,468,469,470,471,472,473,474,475,476,477,478,479,480,481,482,483,484,485,486,487,488,489,490,491,492,493,494,495,496,497,498,499,500,501,502,503,504,505,506,507,508,509,510,511,512,513,514,515,516,517,518,519,520,521,522,523,524,525,526,527,528,529,530,531,532,533,534,535,536,537,538,539,540,541,542,543,544,545,546,547,548,549,550,551,552,553,554,555,556,557,558,559,560,561,562,563,564,565,566,567,568,569,570,571,572,573,574,575,576,577,578,579,580,581,582,583,584,585,586,587,588,589,590,591,592,593,594,595,596,597,598,599,600,601,602,603,604,605,606,607,608,609,610,611,612,613,614,615,616,617,618,619,620,621,622,623,624,625,626,627,628,629,630,631,632,633,634,635,636,637,638,639,640,641,642,643,644,645,646,647,648,649,650,651,652,653,654,655,656,657,658,659,660,661,662,663,664,665,666,667,668,669,670,671,672,673,674,675,676,677,678,679,680,681,682,683,684,685,686,687,688,689,690,691,692,693,694,695,696,697,698,699,700,701,702,703,704,705,706,707,708,709,710,711,712,713,714,715,716,717,718,719,720,721,722,723,724,725,726,727,728,729,730,731,732,733,734,735,736,737,738,739,740,741,742,743,744,745,746,747,748,749,750],"tree_info":[0,0,0,0,0,0,0,0,0,0,0,0,0,0,0,0,0,0,0,0,0,0,0,0,0,0,0,0,0,0,0,0,0,0,0,0,0,0,0,0,0,0,0,0,0,0,0,0,0,0,0,0,0,0,0,0,0,0,0,0,0,0,0,0,0,0,0,0,0,0,0,0,0,0,0,0,0,0,0,0,0,0,0,0,0,0,0,0,0,0,0,0,0,0,0,0,0,0,0,0,0,0,0,0,0,0,0,0,0,0,0,0,0,0,0,0,0,0,0,0,0,0,0,0,0,0,0,0,0,0,0,0,0,0,0,0,0,0,0,0,0,0,0,0,0,0,0,0,0,0,0,0,0,0,0,0,0,0,0,0,0,0,0,0,0,0,0,0,0,0,0,0,0,0,0,0,0,0,0,0,0,0,0,0,0,0,0,0,0,0,0,0,0,0,0,0,0,0,0,0,0,0,0,0,0,0,0,0,0,0,0,0,0,0,0,0,0,0,0,0,0,0,0,0,0,0,0,0,0,0,0,0,0,0,0,0,0,0,0,0,0,0,0,0,0,0,0,0,0,0,0,0,0,0,0,0,0,0,0,0,0,0,0,0,0,0,0,0,0,0,0,0,0,0,0,0,0,0,0,0,0,0,0,0,0,0,0,0,0,0,0,0,0,0,0,0,0,0,0,0,0,0,0,0,0,0,0,0,0,0,0,0,0,0,0,0,0,0,0,0,0,0,0,0,0,0,0,0,0,0,0,0,0,0,0,0,0,0,0,0,0,0,0,0,0,0,0,0,0,0,0,0,0,0,0,0,0,0,0,0,0,0,0,0,0,0,0,0,0,0,0,0,0,0,0,0,0,0,0,0,0,0,0,0,0,0,0,0,0,0,0,0,0,0,0,0,0,0,0,0,0,0,0,0,0,0,0,0,0,0,0,0,0,0,0,0,0,0,0,0,0,0,0,0,0,0,0,0,0,0,0,0,0,0,0,0,0,0,0,0,0,0,0,0,0,0,0,0,0,0,0,0,0,0,0,0,0,0,0,0,0,0,0,0,0,0,0,0,0,0,0,0,0,0,0,0,0,0,0,0,0,0,0,0,0,0,0,0,0,0,0,0,0,0,0,0,0,0,0,0,0,0,0,0,0,0,0,0,0,0,0,0,0,0,0,0,0,0,0,0,0,0,0,0,0,0,0,0,0,0,0,0,0,0,0,0,0,0,0,0,0,0,0,0,0,0,0,0,0,0,0,0,0,0,0,0,0,0,0,0,0,0,0,0,0,0,0,0,0,0,0,0,0,0,0,0,0,0,0,0,0,0,0,0,0,0,0,0,0,0,0,0,0,0,0,0,0,0,0,0,0,0,0,0,0,0,0,0,0,0,0,0,0,0,0,0,0,0,0,0,0,0,0,0,0,0,0,0,0,0,0,0,0,0,0,0,0,0,0,0,0,0,0,0,0,0,0,0,0,0,0,0,0,0,0,0,0,0,0,0,0,0,0,0,0,0,0,0,0,0,0,0,0,0,0,0,0,0,0,0,0,0,0,0,0,0,0,0,0,0,0,0,0,0,0,0,0,0,0,0,0,0,0,0,0,0,0,0,0,0,0,0,0,0,0,0,0,0,0,0,0,0,0,0,0,0,0,0,0,0,0,0,0,0,0,0,0,0,0,0,0,0,0,0,0,0,0,0,0,0],"trees":[{"base_weights":[1.6012128E2],"categories":[],"categories_nodes":[],"categories_segments":[],"categories_sizes":[],"default_left":[0],"id":0,"left_children":[-1],"loss_changes":[0E0],"parents":[2147483647],"right_children":[-1],"split_conditions":[1.6012128E2],"split_indices":[0],"split_type":[0],"sum_hessian":[1.8612E4],"tree_param":{"num_deleted":"0","num_feature":"7","num_nodes":"1","size_leaf_vector":"1"}},{"base_weights":[8.595257E-3,-4.7380307E-1,5.4414886E-1,-2.4610582E-1,-1.5000952E0,3.3068177E-1,1.0074116E0,-4.930384E-1,8.1179865E-2,-1.4039136E0,-1.7920303E0,-4.0717286E-1,3.464709E-1,1.1075048E0,6.826312E-1],"categories":[],"categories_nodes":[],"categories_segments":[],"categories_sizes":[],"default_left":[1,0,0,0,0,0,1,0,0,0,0,0,0,0,0],"id":1,"left_children":[1,3,5,7,9,11,13,-1,-1,-1,-1,-1,-1,-1,-1],"loss_changes":[4.8089297E3,2.2880972E3,8.719873E2,6.4787305E2,4.7408447E1,7.050751E1,8.968213E1,0E0,0E0,0E0,0E0,0E0,0E0,0E0,0E0],"parents":[2147483647,0,0,1,1,2,2,3,3,4,4,5,5,6,6],"right_children":[2,4,6,8,10,12,14,-1,-1,-1,-1,-1,-1,-1,-1],"split_conditions":[1.6061E2,1.5E1,1.6135E2,1.6054E2,2.6E1,1E1,1.6076E2,-4.930384E-1,8.1179865E-2,-1.4039136E0,-1.7920303E0,-4.0717286E-1,3.464709E-1,1.1075048E0,6.826312E-1],"split_indices":[4,2,4,4,1,2,6,0,0,0,0,0,0,0,0],"split_type":[0,0,0,0,0,0,0,0,0,0,0,0,0,0,0],"sum_hessian":[1.8612E4,9.792E3,8.82E3,8.015E3,1.777E3,6.039E3,2.781E3,4.568E3,3.447E3,1.341E3,4.36E2,1.26E2,5.913E3,2.124E3,6.57E2],"tree_param":{"num_deleted":"0","num_feature":"7","num_nodes":"15","size_leaf_vector":"1"}},{"base_weights":[-9.7302756E-5,-2.7260855E-1,4.06456E-2,-1.1644137E0,-7.339112E-2,2.0502459E-1,-7.900864E-3,-7.8471756E-1,-1.360721E0,-4.353614E-1,3.396878E-2,1.2952015E-1,4.6241486E-1,3.6285494E-2,-1.030472E-1],"categories":[],"categories_nodes":[],"categories_segments":[],"categories_sizes":[],"default_left":[0,0,0,0,1,0,0,0,0,0,0,0,0,0,0],"id":2,"left_children":[1,3,5,7,9,11,13,-1,-1,-1,-1,-1,-1,-1,-1],"loss_changes":[2.0666931E2,4.30037E2,1.2922208E2,3.1877686E1,7.695975E1,7.169081E1,5.256427E1,0E0,0E0,0E0,0E0,0E0,0E0,0E0,0E0],"parents":[2147483647,0,0,1,1,2,2,3,3,4,4,5,5,6,6],"right_children":[2,4,6,8,10,12,14,-1,-1,-1,-1,-1,-1,-1,-1],"split_conditions":[1E1,2.3E1,1.6062E2,1.5994E2,1.5955E2,1.6213E2,1.4E1,-7.8471756E-1,-1.360721E0,-4.353614E-1,3.396878E-2,1.2952015E-1,4.6241486E-1,3.6285494E-2,-1.030472E-1],"split_indices":[2,1,6,4,4,4,2,0,0,0,0,0,0,0,0],"split_type":[0,0,0,0,0,0,0,0,0,0,0,0,0,0,0],"sum_hessian":[1.8612E4,2.42E3,1.6192E4,4.41E2,1.979E3,3.691E3,1.2501E4,1.52E2,2.89E2,4.52E2,1.527E3,2.855E3,8.36E2,8.537E3,3.964E3],"tree_param":{"num_deleted":"0","num_feature":"7","num_nodes":"15","size_leaf_vector":"1"}},{"base_weights":[-1.0893068E-4,5.174787E-2,-5.4173604E-2,-1.1451312E-2,1.433481E-1,1.1529728E-2,-9.516414E-2,-4.448624E-2,8.329909E-2,-2.0114869E-1,1.8356754E-1,-1.6395958E-1,5.9496444E-2,-1.4490537E-1,-8.864108E-3],"categories":[],"categories_nodes":[],"categories_segments":[],"categories_sizes":[],"default_left":[1,1,0,1,0,0,0,0,0,0,0,0,0,0,0],"id":3,"left_children":[1,3,5,7,9,11,13,-1,-1,-1,-1,-1,-1,-1,-1],"loss_changes":[5.21866E1,5.50035E1,2.4544365E1,1.7604103E1,5.378228E1,2.9488352E1,2.408918E1,0E0,0E0,0E0,0E0,0E0,0E0,0E0,0E0],"parents":[2147483647,0,0,1,1,2,2,3,3,4,4,5,5,6,6],"right_children":[2,4,6,8,10,12,14,-1,-1,-1,-1,-1,-1,-1,-1],"split_conditions":[1.6054E2,1.6015E2,1.6097E2,1.6012E2,1.5984E2,1.6082E2,4E1,-4.448624E-2,8.329909E-2,-2.0114869E-1,1.8356754E-1,-1.6395958E-1,5.9496444E-2,-1.4490537E-1,-8.864108E-3],"split_indices":[4,5,5,4,6,4,1,0,0,0,0,0,0,0,0],"split_type":[0,0,0,0,0,0,0,0,0,0,0,0,0,0,0],"sum_hessian":[1.8612E4,9.5E3,9.112E3,5.622E3,3.878E3,3.501E3,5.611E3,4.169E3,1.453E3,4.05E2,3.473E3,7.51E2,2.75E3,3.559E3,2.052E3],"tree_param":{"num_deleted":"0","num_feature":"7","num_nodes":"15","size_leaf_vector":"1"}},{"base_weights":[-1.1778772E-5,3.6803246E-2,-6.1177146E-2,6.0108837E-2,-3.725676E-2,1.882213E-2,-1.389708E-1,-6.0829512E-5,1.3233642E-1,-2.5598373E-2,-2.2201066E-1,7.578099E-2,-2.9651888E-2,-2.1866739E-1,-5.6032117E-2],"categories":[],"categories_nodes":[],"categories_segments":[],"categories_sizes":[],"default_left":[0,1,0,1,0,0,1,0,0,0,0,0,0,0,0],"id":4,"left_children":[1,3,5,7,9,11,13,-1,-1,-1,-1,-1,-1,-1,-1],"loss_changes":[4.191509E1,2.0058502E1,4.3529327E1,3.8413494E1,5.9865565E0,9.525021E0,2.342656E1,0E0,0E0,0E0,0E0,0E0,0E0,0E0,0E0],"parents":[2147483647,0,0,1,1,2,2,3,3,4,4,5,5,6,6],"right_children":[2,4,6,8,10,12,14,-1,-1,-1,-1,-1,-1,-1,-1],"split_conditions":[1.3E1,1.6135E2,2.7E1,1.5999E2,1.2E1,1.2E1,1.6028E2,-6.0829512E-5,1.3233642E-1,-2.5598373E-2,-2.2201066E-1,7.578099E-2,-2.9651888E-2,-2.1866739E-1,-5.6032117E-2],"split_indices":[2,4,1,6,2,1,4,0,0,0,0,0,0,0,0],"split_type":[0,0,0,0,0,0,0,0,0,0,0,0,0,0,0],"sum_hessian":[1.8612E4,1.1619E4,6.993E3,8.838E3,2.781E3,3.448E3,3.545E3,4.822E3,4.016E3,2.617E3,1.64E2,1.585E3,1.863E3,1.807E3,1.738E3],"tree_param":{"num_deleted":"0","num_feature":"7","num_nodes":"15","size_leaf_vector":"1"}},{"base_weights":[-1.7682914E-5,6.825528E-3,-2.3719653E-1,5.9255943E-2,-1.7981503E-2,-1.7196877E-1,-2.7249375E-1,2.0056137E-1,4.4889193E-2,1.578486E-2,-3.601807E-2,-1.4166851E-1,-2.4533226E-1,-3.127538E-1,-2.647248E-1],"categories":[],"categories_nodes":[],"categories_segments":[],"categories_sizes":[],"default_left":[1,1,1,0,0,0,0,0,0,0,0,0,0,0,0],"id":5,"left_children":[1,3,5,7,9,11,13,-1,-1,-1,-1,-1,-1,-1,-1],"loss_changes":[3.0211727E1,2.3532297E1,1.1549702E0,1.1787909E1,7.480666E0,3.787098E-1,2.2615433E-2,0E0,0E0,0E0,0E0,0E0,0E0,0E0,0E0],"parents":[2147483647,0,0,1,1,2,2,3,3,4,4,5,5,6,6],"right_children":[2,4,6,8,10,12,14,-1,-1,-1,-1,-1,-1,-1,-1],"split_conditions":[1.619E2,1.598E2,1.6162E2,1.5955E2,1.6082E2,2.7E1,1.6086E2,2.0056137E-1,4.4889193E-2,1.578486E-2,-3.601807E-2,-1.4166851E-1,-2.4533226E-1,-3.127538E-1,-2.647248E-1],"split_indices":[6,5,5,5,6,1,4,0,0,0,0,0,0,0,0],"split_type":[0,0,0,0,0,0,0,0,0,0,0,0,0,0,0],"sum_hessian":[1.8612E4,1.8091E4,5.21E2,5.81E3,1.2281E4,1.85E2,3.36E2,5.35E2,5.275E3,4.276E3,8.005E3,1.33E2,5.2E1,4.8E1,2.88E2],"tree_param":{"num_deleted":"0","num_feature":"7","num_nodes":"15","size_leaf_vector":"1"}},{"base_weights":[-4.1848743E-5,-9.569083E-2,4.8745894E-3,5.6105323E-2,-5.294481E-1,4.5378022E-2,-8.190227E-3,1.4905831E-1,-9.760693E-3,-7.843392E-1,-9.963544E-2,3.0274399E-2,2.8392094E-1,-1.7941536E-2,1.850702E-2],"categories":[],"categories_nodes":[],"categories_segments":[],"categories_sizes":[],"default_left":[0,0,1,0,0,0,0,0,0,0,0,0,0,0,0],"id":6,"left_children":[1,3,5,7,9,11,13,-1,-1,-1,-1,-1,-1,-1,-1],"loss_changes":[8.753272E0,5.9946552E1,9.368795E0,4.1341047E0,2.5776932E1,1.5548561E1,3.4854116E0,0E0,0E0,0E0,0E0,0E0,0E0,0E0,0E0],"parents":[2147483647,0,0,1,1,2,2,3,3,4,4,5,5,6,6],"right_children":[2,4,6,8,10,12,14,-1,-1,-1,-1,-1,-1,-1,-1],"split_conditions":[1.5992E2,1.6219E2,1.593E2,1.5962E2,1.1E1,5.5E1,1.6121E2,1.4905831E-1,-9.760693E-3,-7.843392E-1,-9.963544E-2,3.0274399E-2,2.8392094E-1,-1.7941536E-2,1.850702E-2],"split_indices":[6,4,4,6,2,1,4,0,0,0,0,0,0,0,0],"split_type":[0,0,0,0,0,0,0,0,0,0,0,0,0,0,0],"sum_hessian":[1.8612E4,9.09E2,1.7703E4,6.74E2,2.35E2,4.317E3,1.3386E4,2.79E2,3.95E2,1.47E2,8.8E1,4.061E3,2.56E2,9.805E3,3.581E3],"tree_param":{"num_deleted":"0","num_feature":"7","num_nodes":"15","size_leaf_vector":"1"}},{"base_weights":[-2.1768758E-5,-1.8599106E-3,8.678049E-2,7.454389E-3,-2.0857852E-2,3.6149725E-2,2.4818586E-1,2.6567604E-3,1.24151446E-1,-8.104041E-2,-3.6067234E-3,-3.949028E-3,1.7266414E-1,2.1351323E-1,6.3870895E-1],"categories":[],"categories_nodes":[],"categories_segments":[],"categories_sizes":[],"default_left":[1,0,0,0,0,0,0,0,0,0,0,0,0,0,0],"id":7,"left_children":[1,3,5,7,9,11,13,-1,-1,-1,-1,-1,-1,-1,-1],"loss_changes":[2.9699562E0,3.2256455E0,3.1454492E0,6.847989E0,6.225895E0,1.6155286E0,1.1093507E0,0E0,0E0,0E0,0E0,0E0,0E0,0E0,0E0],"parents":[2147483647,0,0,1,1,2,2,3,3,4,4,5,5,6,6],"right_children":[2,4,6,8,10,12,14,-1,-1,-1,-1,-1,-1,-1,-1],"split_conditions":[1.6196E2,1.6135E2,1.6191E2,1.6128E2,1.1E1,1.6076E2,1.6079E2,2.6567604E-3,1.24151446E-1,-8.104041E-2,-3.6067234E-3,-3.949028E-3,1.7266414E-1,2.1351323E-1,6.3870895E-1],"split_indices":[5,4,4,4,2,6,6,0,0,0,0,0,0,0,0],"split_type":[0,0,0,0,0,0,0,0,0,0,0,0,0,0,0],"sum_hessian":[1.8612E4,1.8227E4,3.85E2,1.2231E4,5.996E3,2.94E2,9.1E1,1.1749E4,4.82E2,1.335E3,4.661E3,2.28E2,6.6E1,8.5E1,6E0],"tree_param":{"num_deleted":"0","num_feature":"7","num_nodes":"15","size_leaf_vector":"1"}},{"base_weights":[5.688701E-5,7.2247896E-4,-1.6670164E-1,2.9697018E-2,-3.853922E-3,-1.89922E-1,1.9172363E-1,-1.2074653E-1,5.201447E-2,4.5660045E-3,-3.545312E-2,-1.5084378E-1,-2.9443443E-1],"categories":[],"categories_nodes":[],"categories_segments":[],"categories_sizes":[],"default_left":[1,0,0,0,0,1,0,0,0,0,0,0,0],"id":8,"left_children":[1,3,5,7,9,11,-1,-1,-1,-1,-1,-1,-1],"loss_changes":[2.0660357E0,2.4585018E0,6.52297E-1,8.49744E0,4.260361E0,2.4147725E-1,0E0,0E0,0E0,0E0,0E0,0E0,0E0],"parents":[2147483647,0,0,1,1,2,2,3,3,4,4,5,5],"right_children":[2,4,6,8,10,12,-1,-1,-1,-1,-1,-1,-1],"split_conditions":[1.6213E2,9E0,1.6027E2,1.6019E2,1.4E1,1.6063E2,1.9172363E-1,-1.2074653E-1,5.201447E-2,4.5660045E-3,-3.545312E-2,-1.5084378E-1,-2.9443443E-1],"split_indices":[4,1,6,5,2,5,0,0,0,0,0,0,0],"split_type":[0,0,0,0,0,0,0,0,0,0,0,0,0],"sum_hessian":[1.8612E4,1.8539E4,7.3E1,2.528E3,1.6011E4,6.9E1,4E0,3.26E2,2.202E3,1.2643E4,3.368E3,5.2E1,1.7E1],"tree_param":{"num_deleted":"0","num_feature":"7","num_nodes":"13","size_leaf_vector":"1"}},{"base_weights":[-1.8147735E-5,1.8439697E-2,-1.9261861E-2,2.325179E-3,4.563542E-2,-1.5217705E-1,-1.5248341E-2,-3.4759298E-2,3.6175903E-2,9.614947E-2,-2.6222657E-2,-3.312181E-1,4.779906E-2,6.987063E-2,-2.2242555E-2],"categories":[],"categories_nodes":[],"categories_segments":[],"categories_sizes":[],"default_left":[1,0,0,0,0,0,0,0,0,0,0,0,0,0,0],"id":9,"left_children":[1,3,5,7,9,11,13,-1,-1,-1,-1,-1,-1,-1,-1],"loss_changes":[6.611645E0,4.1636686E0,4.8590813E0,7.4918494E0,1.2834013E1,9.575481E0,5.268531E0,0E0,0E0,0E0,0E0,0E0,0E0,0E0,0E0],"parents":[2147483647,0,0,1,1,2,2,3,3,4,4,5,5,6,6],"right_children":[2,4,6,8,10,12,14,-1,-1,-1,-1,-1,-1,-1,-1],"split_conditions":[1.6054E2,3.5E1,1E1,1.1E1,1.4E1,1.6061E2,1.6032E2,-3.4759298E-2,3.6175903E-2,9.614947E-2,-2.6222657E-2,-3.312181E-1,4.779906E-2,6.987063E-2,-2.2242555E-2],"split_indices":[4,1,2,2,2,4,5,0,0,0,0,0,0,0,0],"split_type":[0,0,0,0,0,0,0,0,0,0,0,0,0,0,0],"sum_hessian":[1.8612E4,9.5E3,9.112E3,5.966E3,3.534E3,2.66E2,8.846E3,2.847E3,3.119E3,2.075E3,1.459E3,1.4E2,1.26E2,6.71E2,8.175E3],"tree_param":{"num_deleted":"0","num_feature":"7","num_nodes":"15","size_leaf_vector":"1"}},{"base_weights":[-6.157458E-6,1.2957072E-2,-1.6980588E-2,-3.2284427E-2,2.3072755E-2,6.3600787E-3,-4.6754584E-2,8.493017E-2,-5.9324857E-2,2.1875366E-3,5.763651E-2,-1.9528386E-1,1.347112E-2,2.9510993E-3,-1.5148792E-1],"categories":[],"categories_nodes":[],"categories_segments":[],"categories_sizes":[],"default_left":[0,0,0,0,0,0,0,0,0,0,0,0,0,0,0],"id":10,"left_children":[1,3,5,7,9,11,13,-1,-1,-1,-1,-1,-1,-1,-1],"loss_changes":[4.0958886E0,4.8307695E0,5.601553E0,6.1190677E0,6.226738E0,6.4824176E0,1.8439539E1,0E0,0E0,0E0,0E0,0E0,0E0,0E0,0E0],"parents":[2147483647,0,0,1,1,2,2,3,3,4,4,5,5,6,6],"right_children":[2,4,6,8,10,12,14,-1,-1,-1,-1,-1,-1,-1,-1],"split_conditions":[1.6105E2,1E1,1.2E1,1.5961E2,3.2E1,1.6005E2,4E1,8.493017E-2,-5.9324857E-2,2.1875366E-3,5.763651E-2,-1.9528386E-1,1.347112E-2,2.9510993E-3,-1.5148792E-1],"split_indices":[4,2,2,4,1,5,1,0,0,0,0,0,0,0,0],"split_type":[0,0,0,0,0,0,0,0,0,0,0,0,0,0,0],"sum_hessian":[1.8612E4,1.0553E4,8.059E3,1.928E3,8.625E3,4.518E3,3.541E3,3.61E2,1.567E3,5.377E3,3.248E3,1.53E2,4.365E3,2.402E3,1.139E3],"tree_param":{"num_deleted":"0","num_feature":"7","num_nodes":"15","size_leaf_vector":"1"}},{"base_weights":[-1.044661E-5,1.6853686E-1,-4.01509E-3,1.9370197E-1,2.0810843E-2,1.0058461E-2,-1.2900031E-2,2.4328037E-1,9.378273E-2,8.995565E-2,1.7129468E-2,-2.3927461E-2,2.530738E-2,-5.915278E-2,-7.3240423E-3],"categories":[],"categories_nodes":[],"categories_segments":[],"categories_sizes":[],"default_left":[0,1,1,0,0,0,0,0,0,0,0,0,0,0,0],"id":11,"left_children":[1,3,5,7,9,11,13,-1,-1,-1,-1,-1,-1,-1,-1],"loss_changes":[1.2563928E1,1.6019468E0,2.2736557E0,1.8051491E0,1.4750177E-2,3.6475205E0,2.8741736E0,0E0,0E0,0E0,0E0,0E0,0E0,0E0,0E0],"parents":[2147483647,0,0,1,1,2,2,3,3,4,4,5,5,6,6],"right_children":[2,4,6,8,10,12,14,-1,-1,-1,-1,-1,-1,-1,-1],"split_conditions":[1.5943E2,1.5992E2,1.6003E2,5.1E1,1.5907E2,1E1,1.6022E2,2.4328037E-1,9.378273E-2,8.995565E-2,1.7129468E-2,-2.3927461E-2,2.530738E-2,-5.915278E-2,-7.3240423E-3],"split_indices":[5,6,6,1,4,2,4,0,0,0,0,0,0,0,0],"split_type":[0,0,0,0,0,0,0,0,0,0,0,0,0,0,0],"sum_hessian":[1.8612E4,4.31E2,1.8181E4,3.68E2,6.3E1,7.036E3,1.1145E4,2.45E2,1.23E2,2E0,6.1E1,2.179E3,4.857E3,1.198E3,9.947E3],"tree_param":{"num_deleted":"0","num_feature":"7","num_nodes":"15","size_leaf_vector":"1"}},{"base_weights":[1.872487E-5,-3.2345086E-2,3.332732E-3,1.3638371E-2,-5.473569E-2,7.095454E-2,-3.4964294E-4,1.8582973E-1,-1.4617669E-2,-3.251866E-2,-9.920054E-2,3.484128E-1,2.7751187E-3,-3.913418E-2,3.188981E-3],"categories":[],"categories_nodes":[],"categories_segments":[],"categories_sizes":[],"default_left":[0,0,0,0,0,0,0,0,0,0,0,0,0,0,0],"id":12,"left_children":[1,3,5,7,9,11,13,-1,-1,-1,-1,-1,-1,-1,-1],"loss_changes":[1.9964244E0,1.7809204E0,4.2045393E0,2.7614243E0,1.1456752E0,1.6494608E1,2.1979485E0,0E0,0E0,0E0,0E0,0E0,0E0,0E0,0E0],"parents":[2147483647,0,0,1,1,2,2,3,3,4,4,5,5,6,6],"right_children":[2,4,6,8,10,12,14,-1,-1,-1,-1,-1,-1,-1,-1],"split_conditions":[6E0,2E0,9E0,1.6003E2,1.6197E2,1.1E1,1.4E1,1.8582973E-1,-1.4617669E-2,-3.251866E-2,-9.920054E-2,3.484128E-1,2.7751187E-3,-3.913418E-2,3.188981E-3],"split_indices":[1,1,1,6,4,2,1,0,0,0,0,0,0,0,0],"split_type":[0,0,0,0,0,0,0,0,0,0,0,0,0,0,0],"sum_hessian":[1.8612E4,1.728E3,1.6884E4,5.66E2,1.162E3,8.71E2,1.6013E4,7.9E1,4.87E2,7.76E2,3.86E2,1.71E2,7E2,1.338E3,1.4675E4],"tree_param":{"num_deleted":"0","num_feature":"7","num_nodes":"15","size_leaf_vector":"1"}},{"base_weights":[1.8993762E-5,-2.7365924E-3,3.0312676E-2,6.270597E-4,-6.223303E-2,1.0590388E-1,-3.0318223E-2,-2.1134555E-2,6.3628014E-3,-1.0278447E-2,-1.9059882E-1,1.4909029E-1,-2.6295088E-2,-1.0140809E-1,4.6037794E-3],"categories":[],"categories_nodes":[],"categories_segments":[],"categories_sizes":[],"default_left":[0,0,0,0,1,0,0,0,0,0,0,0,0,0,0],"id":13,"left_children":[1,3,5,7,9,11,13,-1,-1,-1,-1,-1,-1,-1,-1],"loss_changes":[1.5538378E0,3.4145775E0,7.1162786E0,2.0159614E0,6.0870123E0,3.948977E0,2.1404684E0,0E0,0E0,0E0,0E0,0E0,0E0,0E0,0E0],"parents":[2147483647,0,0,1,1,2,2,3,3,4,4,5,5,6,6],"right_children":[2,4,6,8,10,12,14,-1,-1,-1,-1,-1,-1,-1,-1],"split_conditions":[5.5E1,5.2E1,1.6106E2,1.6064E2,1.6128E2,1.4E1,1E1,-2.1134555E-2,6.3628014E-3,-1.0278447E-2,-1.9059882E-1,1.4909029E-1,-2.6295088E-2,-1.0140809E-1,4.6037794E-3],"split_indices":[1,1,6,6,4,2,2,0,0,0,0,0,0,0,0],"split_type":[0,0,0,0,0,0,0,0,0,0,0,0,0,0,0],"sum_hessian":[1.8612E4,1.7061E4,1.551E3,1.6149E4,9.12E2,6.9E2,8.61E2,3.368E3,1.2781E4,6.5E2,2.62E2,5.2E2,1.7E2,2.83E2,5.78E2],"tree_param":{"num_deleted":"0","num_feature":"7","num_nodes":"15","size_leaf_vector":"1"}},{"base_weights":[-1.0521211E-5,2.6820285E-2,-3.4279507E-3,-3.1257054E-4,5.5032443E-2,2.5936575E-3,-1.6757328E-2,3.0292267E-2,-8.2273774E-2,1.565235E-1,-1.2984908E-3,-7.4228086E-2,4.574758E-3,-5.25994E-2,-5.378389E-3],"categories":[],"categories_nodes":[],"categories_segments":[],"categories_sizes":[],"default_left":[0,0,0,0,0,0,0,0,0,0,0,0,0,0,0],"id":14,"left_children":[1,3,5,7,9,11,13,-1,-1,-1,-1,-1,-1,-1,-1],"loss_changes":[1.7067624E0,1.6098143E0,1.325287E0,2.694015E0,5.894519E0,1.7313669E0,2.0952234E0,0E0,0E0,0E0,0E0,0E0,0E0,0E0,0E0],"parents":[2147483647,0,0,1,1,2,2,3,3,4,4,5,5,6,6],"right_children":[2,4,6,8,10,12,14,-1,-1,-1,-1,-1,-1,-1,-1],"split_conditions":[1.6002E2,3.3E1,1.6195E2,2.7E1,4.8E1,1.6011E2,1.6077E2,3.0292267E-2,-8.2273774E-2,1.565235E-1,-1.2984908E-3,-7.4228086E-2,4.574758E-3,-5.25994E-2,-5.378389E-3],"split_indices":[5,1,6,1,1,5,5,0,0,0,0,0,0,0,0],"split_type":[0,0,0,0,0,0,0,0,0,0,0,0,0,0,0],"sum_hessian":[1.8612E4,2.102E3,1.651E4,1.072E3,1.03E3,1.1373E4,5.137E3,7.81E2,2.91E2,3.67E2,6.63E2,2.85E2,1.1088E4,1.237E3,3.9E3],"tree_param":{"num_deleted":"0","num_feature":"7","num_nodes":"15","size_leaf_vector":"1"}},{"base_weights":[-4.5203333E-6,1.3934084E-2,-5.389158E-3,2.4547608E-1,6.2301503E-3,1.5068537E-2,-1.2862377E-2,6.575869E-2,3.3555192E-1,-5.0468136E-2,2.015006E-2,2.91942E-2,-2.6919287E-2,-1.9706296E-2,1.2097978E-2],"categories":[],"categories_nodes":[],"categories_segments":[],"categories_sizes":[],"default_left":[0,0,0,0,0,0,0,0,0,0,0,0,0,0,0],"id":15,"left_children":[1,3,5,7,9,11,13,-1,-1,-1,-1,-1,-1,-1,-1],"loss_changes":[1.3970615E0,9.250959E0,2.0529783E0,2.681363E0,3.963766E0,2.1318152E0,1.6803184E0,0E0,0E0,0E0,0E0,0E0,0E0,0E0,0E0],"parents":[2147483647,0,0,1,1,2,2,3,3,4,4,5,5,6,6],"right_children":[2,4,6,8,10,12,14,-1,-1,-1,-1,-1,-1,-1,-1],"split_conditions":[1.8E1,1E1,1.6069E2,1.6E1,1.1E1,1.4E1,4.9E1,6.575869E-2,3.3555192E-1,-5.0468136E-2,2.015006E-2,2.91942E-2,-2.6919287E-2,-1.9706296E-2,1.2097978E-2],"split_indices":[1,2,5,1,2,2,1,0,0,0,0,0,0,0,0],"split_type":[0,0,0,0,0,0,0,0,0,0,0,0,0,0,0],"sum_hessian":[1.8612E4,5.186E3,1.3426E4,1.66E2,5.02E3,3.592E3,9.834E3,5.6E1,1.1E2,9.89E2,4.031E3,2.688E3,9.04E2,7.718E3,2.116E3],"tree_param":{"num_deleted":"0","num_feature":"7","num_nodes":"15","size_leaf_vector":"1"}},{"base_weights":[1.4961204E-5,1.5861766E-2,-7.34066E-3,9.210999E-3,2.0249653E-1,-4.2021163E-2,-5.603957E-4,2.1051656E-2,-3.418644E-2,2.3222618E-1,-6.6218786E-2,-3.8853815E-1,-1.8708825E-2,1.4930223E-2,-2.5234979E-2],"categories":[],"categories_nodes":[],"categories_segments":[],"categories_sizes":[],"default_left":[0,1,0,0,0,0,0,0,0,0,0,0,0,0,0],"id":16,"left_children":[1,3,5,7,9,11,13,-1,-1,-1,-1,-1,-1,-1,-1],"loss_changes":[2.1697054E0,7.322835E0,2.9893491E0,2.929175E0,1.6371069E0,1.6787146E1,4.0653353E0,0E0,0E0,0E0,0E0,0E0,0E0,0E0,0E0],"parents":[2147483647,0,0,1,1,2,2,3,3,4,4,5,5,6,6],"right_children":[2,4,6,8,10,12,14,-1,-1,-1,-1,-1,-1,-1,-1],"split_conditions":[1.6054E2,1.6085E2,1.1E1,4.5E1,4.4E1,1.5E1,3.6E1,2.1051656E-2,-3.418644E-2,2.3222618E-1,-6.6218786E-2,-3.8853815E-1,-1.8708825E-2,1.4930223E-2,-2.5234979E-2],"split_indices":[4,5,2,1,1,1,1,0,0,0,0,0,0,0,0],"split_type":[0,0,0,0,0,0,0,0,0,0,0,0,0,0,0],"sum_hessian":[1.8612E4,5.9E3,1.2712E4,5.698E3,2.02E2,2.078E3,1.0634E4,4.477E3,1.221E3,1.82E2,2E1,1.3E2,1.948E3,6.533E3,4.101E3],"tree_param":{"num_deleted":"0","num_feature":"7","num_nodes":"15","size_leaf_vector":"1"}},{"base_weights":[-1.2960912E-5,-5.6558247E-3,2.194898E-2,-2.0449936E-2,7.8803515E-3,1.3204467E-1,1.8018508E-2,-3.0685494E-2,9.3905525E-3,-3.5623455E-4,6.060273E-2,9.616546E-2,4.7983298E-1,2.5683643E-2,-7.290047E-2],"categories":[],"categories_nodes":[],"categories_segments":[],"categories_sizes":[],"default_left":[0,0,0,0,1,1,0,0,0,0,0,0,0,0,0],"id":17,"left_children":[1,3,5,7,9,11,13,-1,-1,-1,-1,-1,-1,-1,-1],"loss_changes":[2.3068006E0,2.9657478E0,1.6441507E0,2.1615393E0,3.3585298E0,1.5885229E0,2.5630028E0,0E0,0E0,0E0,0E0,0E0,0E0,0E0,0E0],"parents":[2147483647,0,0,1,1,2,2,3,3,4,4,5,5,6,6],"right_children":[2,4,6,8,10,12,14,-1,-1,-1,-1,-1,-1,-1,-1],"split_conditions":[4.8E1,1.6122E2,1.5999E2,1.6182E2,1.6121E2,1.6015E2,5.9E1,-3.0685494E-2,9.3905525E-3,-3.5623455E-4,6.060273E-2,9.616546E-2,4.7983298E-1,2.5683643E-2,-7.290047E-2],"split_indices":[1,6,6,5,4,5,1,0,0,0,0,0,0,0,0],"split_type":[0,0,0,0,0,0,0,0,0,0,0,0,0,0,0],"sum_hessian":[1.8612E4,1.4808E4,3.804E3,7.075E3,7.733E3,1.3E2,3.674E3,5.268E3,1.807E3,6.689E3,1.044E3,1.19E2,1.1E1,3.389E3,2.85E2],"tree_param":{"num_deleted":"0","num_feature":"7","num_nodes":"15","size_leaf_vector":"1"}},{"base_weights":[2.960351E-5,3.5508682E-3,-2.2489995E-2,1.438865E-2,-1.3082639E-2,-4.595137E-2,8.655589E-2,-2.0845648E-2,2.6028864E-2,5.351869E-3,-3.8880438E-2,-4.369149E-3,-1.2287533E-1,1.5531515E-1,-1.9396568E-3],"categories":[],"categories_nodes":[],"categories_segments":[],"categories_sizes":[],"default_left":[1,1,1,0,0,0,0,0,0,0,0,0,0,0,0],"id":18,"left_children":[1,3,5,7,9,11,13,-1,-1,-1,-1,-1,-1,-1,-1],"loss_changes":[1.4760436E0,2.9019997E0,6.443386E0,3.9981258E0,3.0205512E0,6.627106E0,2.714161E0,0E0,0E0,0E0,0E0,0E0,0E0,0E0,0E0],"parents":[2147483647,0,0,1,1,2,2,3,3,4,4,5,5,6,6],"right_children":[2,4,6,8,10,12,14,-1,-1,-1,-1,-1,-1,-1,-1],"split_conditions":[1.614E2,1.6086E2,1.6076E2,1E1,4E1,3.3E1,4.4E1,-2.0845648E-2,2.6028864E-2,5.351869E-3,-3.8880438E-2,-4.369149E-3,-1.2287533E-1,1.5531515E-1,-1.9396568E-3],"split_indices":[4,6,6,2,1,1,1,0,0,0,0,0,0,0,0],"split_type":[0,0,0,0,0,0,0,0,0,0,0,0,0,0,0],"sum_hessian":[1.8612E4,1.6096E4,2.516E3,9.746E3,6.35E3,2.071E3,4.45E2,2.42E3,7.326E3,3.704E3,2.646E3,1.345E3,7.26E2,2.5E2,1.95E2],"tree_param":{"num_deleted":"0","num_feature":"7","num_nodes":"15","size_leaf_vector":"1"}},{"base_weights":[-2.6708824E-6,-7.2805895E-3,2.8322875E-2,9.521936E-3,-2.1229193E-2,5.0752833E-2,-7.1040415E-3,-3.157416E-3,8.520674E-2,-1.1342669E-2,-7.828024E-2,1.8654909E-2,8.01936E-2,-3.4158733E-2,3.708348E-2],"categories":[],"categories_nodes":[],"categories_segments":[],"categories_sizes":[],"default_left":[0,0,0,0,0,0,0,0,0,0,0,0,0,0,0],"id":19,"left_children":[1,3,5,7,9,11,13,-1,-1,-1,-1,-1,-1,-1,-1],"loss_changes":[3.8372948E0,3.4710135E0,3.0239062E0,6.447092E0,4.563296E0,2.200325E0,1.7657948E0,0E0,0E0,0E0,0E0,0E0,0E0,0E0,0E0],"parents":[2147483647,0,0,1,1,2,2,3,3,4,4,5,5,6,6],"right_children":[2,4,6,8,10,12,14,-1,-1,-1,-1,-1,-1,-1,-1],"split_conditions":[4.8E1,1.2E1,1.6164E2,4.2E1,4.1E1,1.6085E2,5.6E1,-3.157416E-3,8.520674E-2,-1.1342669E-2,-7.828024E-2,1.8654909E-2,8.01936E-2,-3.4158733E-2,3.708348E-2],"split_indices":[1,2,6,1,1,5,1,0,0,0,0,0,0,0,0],"split_type":[0,0,0,0,0,0,0,0,0,0,0,0,0,0,0],"sum_hessian":[1.8612E4,1.4808E4,3.804E3,6.717E3,8.091E3,2.329E3,1.475E3,5.754E3,9.63E2,6.897E3,1.194E3,1.115E3,1.214E3,9.15E2,5.6E2],"tree_param":{"num_deleted":"0","num_feature":"7","num_nodes":"15","size_leaf_vector":"1"}},{"base_weights":[2.9307564E-6,4.2031454E-3,-1.381963E-2,2.0939703E-3,9.8595545E-2,1.1374456E-3,-6.420488E-2,7.2721266E-3,-1.0392805E-2,6.378042E-2,2.9353657E-1,-7.6220618E-3,1.7911E-1,-1.0720478E-1,8.914447E-4],"categories":[],"categories_nodes":[],"categories_segments":[],"categories_sizes":[],"default_left":[1,1,0,0,0,0,1,0,0,0,0,0,0,0,0],"id":20,"left_children":[1,3,5,7,9,11,13,-1,-1,-1,-1,-1,-1,-1,-1],"loss_changes":[1.0806865E0,2.842004E0,3.2692595E0,9.030312E-1,2.0987897E0,5.217618E0,2.7796369E0,0E0,0E0,0E0,0E0,0E0,0E0,0E0,0E0],"parents":[2147483647,0,0,1,1,2,2,3,3,4,4,5,5,6,6],"right_children":[2,4,6,8,10,12,14,-1,-1,-1,-1,-1,-1,-1,-1],"split_conditions":[1.6102E2,1.6172E2,4.4E1,1.4E1,1.6155E2,4.1E1,1.6152E2,7.2721266E-3,-1.0392805E-2,6.378042E-2,2.9353657E-1,-7.6220618E-3,1.7911E-1,-1.0720478E-1,8.914447E-4],"split_indices":[5,6,1,2,4,1,6,0,0,0,0,0,0,0,0],"split_type":[0,0,0,0,0,0,0,0,0,0,0,0,0,0,0],"sum_hessian":[1.8612E4,1.4275E4,4.337E3,1.3964E4,3.11E2,3.345E3,9.92E2,9.871E3,4.093E3,2.65E2,4.6E1,3.189E3,1.56E2,5.97E2,3.95E2],"tree_param":{"num_deleted":"0","num_feature":"7","num_nodes":"15","size_leaf_vector":"1"}},{"base_weights":[2.0349698E-5,2.4653873E-3,-2.0054134E-2,-3.9813123E-3,1.6263591E-2,3.299621E-3,-6.854397E-2,7.702763E-3,-1.5854206E-2,6.074089E-3,6.536401E-2,-3.8412757E-2,1.0474254E-1,-2.1979432E-1,-1.6546817E-2],"categories":[],"categories_nodes":[],"categories_segments":[],"categories_sizes":[],"default_left":[1,1,0,1,0,0,0,0,0,0,0,0,0,0,0],"id":21,"left_children":[1,3,5,7,9,11,13,-1,-1,-1,-1,-1,-1,-1,-1],"loss_changes":[9.136289E-1,1.4760598E0,2.2888463E0,1.569088E0,2.6432347E0,5.779919E0,5.163397E0,0E0,0E0,0E0,0E0,0E0,0E0,0E0,0E0],"parents":[2147483647,0,0,1,1,2,2,3,3,4,4,5,5,6,6],"right_children":[2,4,6,8,10,12,14,-1,-1,-1,-1,-1,-1,-1,-1],"split_conditions":[1.6155E2,1.6081E2,3.5E1,1.6011E2,4.6E1,2.6E1,4.4E1,7.702763E-3,-1.5854206E-2,6.074089E-3,6.536401E-2,-3.8412757E-2,1.0474254E-1,-2.1979432E-1,-1.6546817E-2],"split_indices":[6,5,1,4,1,1,1,0,0,0,0,0,0,0,0],"split_type":[0,0,0,0,0,0,0,0,0,0,0,0,0,0,0],"sum_hessian":[1.8612E4,1.6592E4,2.02E3,1.1309E4,5.283E3,1.364E3,6.56E2,5.7E3,5.609E3,4.376E3,9.07E2,9.67E2,3.97E2,1.67E2,4.89E2],"tree_param":{"num_deleted":"0","num_feature":"7","num_nodes":"15","size_leaf_vector":"1"}},{"base_weights":[-7.121533E-6,1.0775499E-2,-3.800223E-3,3.2724623E-2,-3.036735E-3,3.1476526E-3,-1.7113972E-2,8.294353E-2,-1.0230064E-3,-2.6896436E-2,1.9168228E-2,-4.9474668E-2,8.05479E-3,-9.66723E-2,-1.0109045E-2],"categories":[],"categories_nodes":[],"categories_segments":[],"categories_sizes":[],"default_left":[0,0,0,1,1,0,0,0,0,0,0,0,0,0,0],"id":22,"left_children":[1,3,5,7,9,11,13,-1,-1,-1,-1,-1,-1,-1,-1],"loss_changes":[7.6130474E-1,1.4686377E0,1.2738101E0,3.1709979E0,1.5761518E0,2.337076E0,2.6305947E0,0E0,0E0,0E0,0E0,0E0,0E0,0E0,0E0],"parents":[2147483647,0,0,1,1,2,2,3,3,4,4,5,5,6,6],"right_children":[2,4,6,8,10,12,14,-1,-1,-1,-1,-1,-1,-1,-1],"split_conditions":[1.7E1,1.2E1,1.6135E2,1.6011E2,1.6076E2,1.6013E2,1E1,8.294353E-2,-1.0230064E-3,-2.6896436E-2,1.9168228E-2,-4.9474668E-2,8.05479E-3,-9.66723E-2,-1.0109045E-2],"split_indices":[1,2,4,4,4,6,2,0,0,0,0,0,0,0,0],"split_type":[0,0,0,0,0,0,0,0,0,0,0,0,0,0,0],"sum_hessian":[1.8612E4,4.843E3,1.3769E4,1.87E3,2.973E3,9.048E3,4.721E3,7.51E2,1.119E3,1.433E3,1.54E3,7.71E2,8.277E3,3.81E2,4.34E3],"tree_param":{"num_deleted":"0","num_feature":"7","num_nodes":"15","size_leaf_vector":"1"}},{"base_weights":[-2.6635043E-6,1.9259714E-2,-3.8204207E-3,7.249726E-2,1.1329449E-2,-4.8454434E-2,-1.9835955E-3,2.482026E-1,1.6009089E-2,-1.3390478E-2,3.8195137E-2,-1.3011178E-1,-1.7656023E-2,4.5441873E-2,-4.2686197E-3],"categories":[],"categories_nodes":[],"categories_segments":[],"categories_sizes":[],"default_left":[0,0,0,1,0,0,0,0,0,0,0,0,0,0,0],"id":23,"left_children":[1,3,5,7,9,11,13,-1,-1,-1,-1,-1,-1,-1,-1],"loss_changes":[1.3688564E0,1.2990952E0,1.273539E0,3.9562109E0,1.7810111E0,1.5418614E0,1.6172664E0,0E0,0E0,0E0,0E0,0E0,0E0,0E0,0E0],"parents":[2147483647,0,0,1,1,2,2,3,3,4,4,5,5,6,6],"right_children":[2,4,6,8,10,12,14,-1,-1,-1,-1,-1,-1,-1,-1],"split_conditions":[1.6038E2,1.2E1,1.6062E2,1.619E2,3E1,1.6027E2,1.6071E2,2.482026E-1,1.6009089E-2,-1.3390478E-2,3.8195137E-2,-1.3011178E-1,-1.7656023E-2,4.5441873E-2,-4.2686197E-3],"split_indices":[6,1,6,4,1,5,6,0,0,0,0,0,0,0,0],"split_type":[0,0,0,0,0,0,0,0,0,0,0,0,0,0,0],"sum_hessian":[1.8612E4,3.078E3,1.5534E4,3.98E2,2.68E3,6.13E2,1.4921E4,9.6E1,3.02E2,1.396E3,1.284E3,1.67E2,4.46E2,6.85E2,1.4236E4],"tree_param":{"num_deleted":"0","num_feature":"7","num_nodes":"15","size_leaf_vector":"1"}},{"base_weights":[1.3472462E-5,6.000218E-2,-1.435499E-3,-1.1892797E-1,8.974382E-2,-2.848751E-2,8.7640673E-4,-2.0967163E-1,-5.7709523E-2,5.1228553E-2,1.3891962E-1,-6.1795883E-2,4.1956462E-2,-3.0368788E-2,2.180584E-3],"categories":[],"categories_nodes":[],"categories_segments":[],"categories_sizes":[],"default_left":[0,1,0,0,0,0,0,0,0,0,0,0,0,0,0],"id":24,"left_children":[1,3,5,7,9,11,13,-1,-1,-1,-1,-1,-1,-1,-1],"loss_changes":[1.617964E0,2.346889E0,1.1367203E0,3.3787668E-1,7.069285E-1,3.3602538E0,6.8241274E-1,0E0,0E0,0E0,0E0,0E0,0E0,0E0,0E0],"parents":[2147483647,0,0,1,1,2,2,3,3,4,4,5,5,6,6],"right_children":[2,4,6,8,10,12,14,-1,-1,-1,-1,-1,-1,-1,-1],"split_conditions":[1.5972E2,1.6015E2,5E0,1.5962E2,2E1,1.4E1,1.6005E2,-2.0967163E-1,-5.7709523E-2,5.1228553E-2,1.3891962E-1,-6.1795883E-2,4.1956462E-2,-3.0368788E-2,2.180584E-3],"split_indices":[6,5,1,6,1,2,6,0,0,0,0,0,0,0,0],"split_type":[0,0,0,0,0,0,0,0,0,0,0,0,0,0,0],"sum_hessian":[1.8612E4,4.38E2,1.8174E4,6.2E1,3.76E2,1.43E3,1.6744E4,2.4E1,3.8E1,2.12E2,1.64E2,9.71E2,4.59E2,6.7E2,1.6074E4],"tree_param":{"num_deleted":"0","num_feature":"7","num_nodes":"15","size_leaf_vector":"1"}},{"base_weights":[-8.024124E-6,1.3647373E-2,-2.5456292E-3,-1.3659164E-2,3.0649416E-2,-1.9401887E-2,8.407754E-4,-1.1563973E-1,6.714333E-4,1.5907113E-2,6.96409E-2,4.032659E-3,-4.0274866E-2,2.850266E-2,-2.7743387E-3],"categories":[],"categories_nodes":[],"categories_segments":[],"categories_sizes":[],"default_left":[0,0,0,0,0,0,0,0,0,0,0,0,0,0,0],"id":25,"left_children":[1,3,5,7,9,11,13,-1,-1,-1,-1,-1,-1,-1,-1],"loss_changes":[6.4501256E-1,1.3546853E0,8.960341E-1,1.636893E0,1.0324262E0,1.284667E0,1.3072906E0,0E0,0E0,0E0,0E0,0E0,0E0,0E0,0E0],"parents":[2147483647,0,0,1,1,2,2,3,3,4,4,5,5,6,6],"right_children":[2,4,6,8,10,12,14,-1,-1,-1,-1,-1,-1,-1,-1],"split_conditions":[1.6018E2,1.598E2,1.602E2,2.1E1,4.2E1,2.6E1,1.6061E2,-1.1563973E-1,6.714333E-4,1.5907113E-2,6.96409E-2,4.032659E-3,-4.0274866E-2,2.850266E-2,-2.7743387E-3],"split_indices":[5,5,4,1,1,1,4,0,0,0,0,0,0,0,0],"split_type":[0,0,0,0,0,0,0,0,0,0,0,0,0,0,0],"sum_hessian":[1.8612E4,2.916E3,1.5696E4,1.119E3,1.797E3,2.625E3,1.3071E4,1.37E2,9.82E2,1.305E3,4.92E2,1.237E3,1.388E3,1.51E3,1.1561E4],"tree_param":{"num_deleted":"0","num_feature":"7","num_nodes":"15","size_leaf_vector":"1"}},{"base_weights":[-1.5166152E-7,-6.2773987E-3,1.117513E-2,-6.8696873E-4,-2.2569282E-2,3.7845757E-2,-1.9221555E-3,1.3109808E-3,-5.4104995E-2,1.6967075E-2,-3.579593E-2,3.9838716E-2,-1.8187714E-1,-1.1129408E-2,6.1689083E-2],"categories":[],"categories_nodes":[],"categories_segments":[],"categories_sizes":[],"default_left":[0,0,1,0,0,1,0,0,0,0,0,0,0,0,0],"id":26,"left_children":[1,3,5,7,9,11,13,-1,-1,-1,-1,-1,-1,-1,-1],"loss_changes":[1.3057721E0,1.0855505E0,2.3387218E0,9.472688E-1,1.5929399E0,9.728136E-1,2.6309967E0,0E0,0E0,0E0,0E0,0E0,0E0,0E0,0E0],"parents":[2147483647,0,0,1,1,2,2,3,3,4,4,5,5,6,6],"right_children":[2,4,6,8,10,12,14,-1,-1,-1,-1,-1,-1,-1,-1],"split_conditions":[1.616E2,1.4E1,1.5983E2,5.8E1,1.5985E2,1.6201E2,1.4E1,1.3109808E-3,-5.4104995E-2,1.6967075E-2,-3.579593E-2,3.9838716E-2,-1.8187714E-1,-1.1129408E-2,6.1689083E-2],"split_indices":[5,2,4,1,5,6,2,0,0,0,0,0,0,0,0],"split_type":[0,0,0,0,0,0,0,0,0,0,0,0,0,0,0],"sum_hessian":[1.8612E4,1.1918E4,6.694E3,8.874E3,3.044E3,2.204E3,4.49E3,8.555E3,3.19E2,7.63E2,2.281E3,2.185E3,1.9E1,3.923E3,5.67E2],"tree_param":{"num_deleted":"0","num_feature":"7","num_nodes":"15","size_leaf_vector":"1"}},{"base_weights":[-1.0697466E-5,-1.4108409E-2,5.9095034E-3,-3.6594678E-2,1.5475761E-2,1.2547125E-2,-1.2809847E-2,-2.8052855E-2,-1.3070966E-1,-4.9112152E-2,2.6312085E-2,4.2029847E-3,2.9564288E-2,5.166086E-3,-5.7345126E-2],"categories":[],"categories_nodes":[],"categories_segments":[],"categories_sizes":[],"default_left":[0,0,0,1,0,0,0,0,0,0,0,0,0,0,0],"id":27,"left_children":[1,3,5,7,9,11,13,-1,-1,-1,-1,-1,-1,-1,-1],"loss_changes":[1.5535483E0,3.6626992E0,1.6289798E0,2.5109744E0,1.6656439E0,1.37409E0,2.747829E0,0E0,0E0,0E0,0E0,0E0,0E0,0E0,0E0],"parents":[2147483647,0,0,1,1,2,2,3,3,4,4,5,5,6,6],"right_children":[2,4,6,8,10,12,14,-1,-1,-1,-1,-1,-1,-1,-1],"split_conditions":[1.1E1,3.7E1,4.4E1,1.5994E2,1.5955E2,1.616E2,1.4E1,-2.8052855E-2,-1.3070966E-1,-4.9112152E-2,2.6312085E-2,4.2029847E-3,2.9564288E-2,5.166086E-3,-5.7345126E-2],"split_indices":[2,1,1,6,5,5,2,0,0,0,0,0,0,0,0],"split_type":[0,0,0,0,0,0,0,0,0,0,0,0,0,0,0],"sum_hessian":[1.8612E4,5.504E3,1.3108E4,3.127E3,2.377E3,9.677E3,3.431E3,2.868E3,2.59E2,3.41E2,2.036E3,6.494E3,3.183E3,2.445E3,9.86E2],"tree_param":{"num_deleted":"0","num_feature":"7","num_nodes":"15","size_leaf_vector":"1"}},{"base_weights":[-1.1007348E-5,1.841971E-2,-6.300665E-3,5.7505067E-3,5.0060403E-2,-8.3025685E-4,-2.2854479E-2,-9.340193E-3,2.6719961E-2,1.7137267E-2,8.025453E-2,1.2990198E-2,-8.5143475E-3,-4.240931E-2,-6.4945566E-3],"categories":[],"categories_nodes":[],"categories_segments":[],"categories_sizes":[],"default_left":[0,1,0,1,0,0,0,0,0,0,0,0,0,0,0],"id":28,"left_children":[1,3,5,7,9,11,13,-1,-1,-1,-1,-1,-1,-1,-1],"loss_changes":[2.157789E0,1.8981961E0,1.2567188E0,1.0707787E0,1.3446169E0,1.1079642E0,1.1024733E0,0E0,0E0,0E0,0E0,0E0,0E0,0E0,0E0],"parents":[2147483647,0,0,1,1,2,2,3,3,4,4,5,5,6,6],"right_children":[2,4,6,8,10,12,14,-1,-1,-1,-1,-1,-1,-1,-1],"split_conditions":[1.603E2,1.5995E2,1.6186E2,1.5982E2,3E1,2.1E1,1.6155E2,-9.340193E-3,2.6719961E-2,1.7137267E-2,8.025453E-2,1.2990198E-2,-8.5143475E-3,-4.240931E-2,-6.4945566E-3],"split_indices":[4,6,5,5,1,1,4,0,0,0,0,0,0,0,0],"split_type":[0,0,0,0,0,0,0,0,0,0,0,0,0,0,0],"sum_hessian":[1.8612E4,4.735E3,1.3877E4,3.382E3,1.353E3,1.0431E4,3.446E3,1.967E3,1.415E3,6.48E2,7.05E2,3.727E3,6.704E3,1.569E3,1.877E3],"tree_param":{"num_deleted":"0","num_feature":"7","num_nodes":"15","size_leaf_vector":"1"}},{"base_weights":[4.6859313E-6,2.478409E-3,-1.4072953E-2,-5.4688267E-3,1.0887096E-2,4.5963046E-3,-3.6015477E-2,-1.181996E-2,1.1684605E-2,1.7159207E-1,9.876799E-3,-1.3058157E-2,2.6532555E-2,-5.8465425E-2,3.617914E-2],"categories":[],"categories_nodes":[],"categories_segments":[],"categories_sizes":[],"default_left":[1,0,0,1,0,0,0,0,0,0,0,0,0,0,0],"id":29,"left_children":[1,3,5,7,9,11,13,-1,-1,-1,-1,-1,-1,-1,-1],"loss_changes":[6.482174E-1,1.0580459E0,1.1398137E0,8.869402E-1,1.2473383E0,5.828046E-1,2.0750747E0,0E0,0E0,0E0,0E0,0E0,0E0,0E0,0E0],"parents":[2147483647,0,0,1,1,2,2,3,3,4,4,5,5,6,6],"right_children":[2,4,6,8,10,12,14,-1,-1,-1,-1,-1,-1,-1,-1],"split_conditions":[1.6135E2,3.1E1,3.5E1,1.6083E2,1.5955E2,1.6168E2,5.3E1,-1.181996E-2,1.1684605E-2,1.7159207E-1,9.876799E-3,-1.3058157E-2,2.6532555E-2,-5.8465425E-2,3.617914E-2],"split_indices":[4,1,1,4,4,5,1,0,0,0,0,0,0,0,0],"split_type":[0,0,0,0,0,0,0,0,0,0,0,0,0,0,0],"sum_hessian":[1.8612E4,1.5831E4,2.781E3,8.139E3,7.692E3,1.503E3,1.278E3,5.94E3,2.199E3,4.7E1,7.645E3,8.33E2,6.7E2,9.75E2,3.03E2],"tree_param":{"num_deleted":"0","num_feature":"7","num_nodes":"15","size_leaf_vector":"1"}},{"base_weights":[1.2835484E-5,-7.054593E-3,6.6019106E-3,-4.2441834E-4,-2.5644738E-2,-1.4629259E-2,9.093136E-3,2.0265013E-2,-8.743031E-3,-9.755759E-3,-5.852575E-2,-1.0404089E-1,1.0503074E-3,3.475914E-2,7.434813E-3],"categories":[],"categories_nodes":[],"categories_segments":[],"categories_sizes":[],"default_left":[0,0,0,0,0,1,0,0,0,0,0,0,0,0,0],"id":30,"left_children":[1,3,5,7,9,11,13,-1,-1,-1,-1,-1,-1,-1,-1],"loss_changes":[8.668134E-1,1.1069504E0,5.0963795E-1,1.1397E0,1.2329235E0,1.4188682E0,3.667156E-1,0E0,0E0,0E0,0E0,0E0,0E0,0E0,0E0],"parents":[2147483647,0,0,1,1,2,2,3,3,4,4,5,5,6,6],"right_children":[2,4,6,8,10,12,14,-1,-1,-1,-1,-1,-1,-1,-1],"split_conditions":[1.6122E2,4.5E1,7E0,1.6054E2,1.4E1,1.5979E2,1.6131E2,2.0265013E-2,-8.743031E-3,-9.755759E-3,-5.852575E-2,-1.0404089E-1,1.0503074E-3,3.475914E-2,7.434813E-3],"split_indices":[6,1,1,4,2,5,6,0,0,0,0,0,0,0,0],"split_type":[0,0,0,0,0,0,0,0,0,0,0,0,0,0,0],"sum_hessian":[1.8612E4,8.98E3,9.632E3,6.62E3,2.36E3,1.011E3,8.621E3,1.898E3,4.722E3,1.592E3,7.68E2,1.5E2,8.61E2,5.22E2,8.099E3],"tree_param":{"num_deleted":"0","num_feature":"7","num_nodes":"15","size_leaf_vector":"1"}},{"base_weights":[-4.8228367E-6,-9.0218434E-4,3.2910552E-2,-1.3758117E-2,1.9465653E-3,2.961862E-2,2.9571787E-1,1.5073499E-2,-2.3836434E-2,9.311768E-3,-3.0807387E-3,4.786427E-2,-1.4862915E-2],"categories":[],"categories_nodes":[],"categories_segments":[],"categories_sizes":[],"default_left":[1,0,1,0,1,1,0,0,0,0,0,0,0],"id":31,"left_children":[1,3,5,7,9,11,-1,-1,-1,-1,-1,-1,-1],"loss_changes":[5.4980165E-1,6.6364163E-1,4.1862231E-1,9.554765E-1,5.4928887E-1,3.9758107E-1,0E0,0E0,0E0,0E0,0E0,0E0,0E0],"parents":[2147483647,0,0,1,1,2,2,3,3,4,4,5,5],"right_children":[2,4,6,8,10,12,-1,-1,-1,-1,-1,-1,-1],"split_conditions":[1.6191E2,1.6062E2,1.6077E2,1.5992E2,1.6007E2,1.603E2,2.9571787E-1,1.5073499E-2,-2.3836434E-2,9.311768E-3,-3.0807387E-3,4.786427E-2,-1.4862915E-2],"split_indices":[4,6,6,6,4,6,0,0,0,0,0,0,0],"split_type":[0,0,0,0,0,0,0,0,0,0,0,0,0],"sum_hessian":[1.8612E4,1.8119E4,4.93E2,3.286E3,1.4833E4,4.88E2,5E0,8.51E2,2.435E3,6.017E3,8.816E3,3.46E2,1.42E2],"tree_param":{"num_deleted":"0","num_feature":"7","num_nodes":"13","size_leaf_vector":"1"}},{"base_weights":[1.9074101E-5,-2.1091504E-3,2.3366574E-2,-6.1387336E-3,4.556163E-3,4.137143E-2,-8.43128E-3,-4.36629E-4,-1.5405601E-2,9.101168E-3,-3.2410752E-2,2.4645641E-2,8.746407E-2,4.8948964E-3,-5.9272047E-2],"categories":[],"categories_nodes":[],"categories_segments":[],"categories_sizes":[],"default_left":[1,0,0,0,1,0,1,0,0,0,0,0,0,0,0],"id":32,"left_children":[1,3,5,7,9,11,13,-1,-1,-1,-1,-1,-1,-1,-1],"loss_changes":[9.2490536E-1,4.5820606E-1,8.90611E-1,5.6179506E-1,1.0802941E0,7.633836E-1,3.8173E-1,0E0,0E0,0E0,0E0,0E0,0E0,0E0,0E0],"parents":[2147483647,0,0,1,1,2,2,3,3,4,4,5,5,6,6],"right_children":[2,4,6,8,10,12,14,-1,-1,-1,-1,-1,-1,-1,-1],"split_conditions":[1.6164E2,3.8E1,1.6181E2,2.3E1,1.6101E2,4E1,1.6135E2,-4.36629E-4,-1.5405601E-2,9.101168E-3,-3.2410752E-2,2.4645641E-2,8.746407E-2,4.8948964E-3,-5.9272047E-2],"split_indices":[5,1,6,1,5,1,4,0,0,0,0,0,0,0,0],"split_type":[0,0,0,0,0,0,0,0,0,0,0,0,0,0,0],"sum_hessian":[1.8612E4,1.7058E4,1.554E3,1.0631E4,6.427E3,9.92E2,5.62E2,6.582E3,4.049E3,5.724E3,7.03E2,7.29E2,2.63E2,4.46E2,1.16E2],"tree_param":{"num_deleted":"0","num_feature":"7","num_nodes":"15","size_leaf_vector":"1"}},{"base_weights":[6.4189717E-6,1.205718E-3,-1.3178147E-2,7.5162747E-3,-2.6468432E-3,-6.439413E-2,-1.7057138E-3,4.65684E-3,4.40815E-2,-1.2735835E-2,2.9119407E-3,-2.836824E-2,-1.0746115E-1,5.3398706E-2,-1.4543923E-2],"categories":[],"categories_nodes":[],"categories_segments":[],"categories_sizes":[],"default_left":[0,1,0,1,0,0,1,0,0,0,0,0,0,0,0],"id":33,"left_children":[1,3,5,7,9,11,13,-1,-1,-1,-1,-1,-1,-1,-1],"loss_changes":[2.9432908E-1,4.1482794E-1,9.1180193E-1,6.760622E-1,5.942315E-1,4.3758512E-1,8.985205E-1,0E0,0E0,0E0,0E0,0E0,0E0,0E0,0E0],"parents":[2147483647,0,0,1,1,2,2,3,3,4,4,5,5,6,6],"right_children":[2,4,6,8,10,12,14,-1,-1,-1,-1,-1,-1,-1,-1],"split_conditions":[5.5E1,1.6009E2,1E1,1.5997E2,1.6078E2,1.6038E2,1.599E2,4.65684E-3,4.40815E-2,-1.2735835E-2,2.9119407E-3,-2.836824E-2,-1.0746115E-1,5.3398706E-2,-1.4543923E-2],"split_indices":[1,5,2,5,5,4,6,0,0,0,0,0,0,0,0],"split_type":[0,0,0,0,0,0,0,0,0,0,0,0,0,0,0],"sum_hessian":[1.8612E4,1.7061E4,1.551E3,6.467E3,1.0594E4,2.83E2,1.268E3,5.999E3,4.68E2,3.763E3,6.831E3,1.55E2,1.28E2,2.39E2,1.029E3],"tree_param":{"num_deleted":"0","num_feature":"7","num_nodes":"15","size_leaf_vector":"1"}},{"base_weights":[-2.2519687E-6,-2.757174E-2,4.6160712E-4,2.97583E-3,-1.5654328E-1,9.989335E-4,-2.4486285E-2,-1.1428643E-2,3.4982604E-1,-9.298178E-2,-2.0054492E-1,1.2056795E-3,-4.8879467E-2,-2.54439E-3,-9.457729E-2],"categories":[],"categories_nodes":[],"categories_segments":[],"categories_sizes":[],"default_left":[0,0,1,0,0,1,0,0,0,0,0,0,0,0,0],"id":34,"left_children":[1,3,5,7,9,11,13,-1,-1,-1,-1,-1,-1,-1,-1],"loss_changes":[2.3804243E-1,1.213914E0,2.4541931E-1,1.2530468E0,1.4636493E-1,1.8486317E-1,5.934001E-1,0E0,0E0,0E0,0E0,0E0,0E0,0E0,0E0],"parents":[2147483647,0,0,1,1,2,2,3,3,4,4,5,5,6,6],"right_children":[2,4,6,8,10,12,14,-1,-1,-1,-1,-1,-1,-1,-1],"split_conditions":[1.5908E2,2.7E1,1.6196E2,2.6E1,1.6001E2,1.6213E2,1.6191E2,-1.1428643E-2,3.4982604E-1,-9.298178E-2,-2.0054492E-1,1.2056795E-3,-4.8879467E-2,-2.54439E-3,-9.457729E-2],"split_indices":[4,1,5,1,6,4,4,0,0,0,0,0,0,0,0],"split_type":[0,0,0,0,0,0,0,0,0,0,0,0,0,0,0],"sum_hessian":[1.8612E4,3.07E2,1.8305E4,2.49E2,5.8E1,1.792E4,3.85E2,2.4E2,9E0,2.5E1,3.3E1,1.7847E4,7.3E1,2.94E2,9.1E1],"tree_param":{"num_deleted":"0","num_feature":"7","num_nodes":"15","size_leaf_vector":"1"}},{"base_weights":[-5.1073043E-6,1.648314E-2,-8.0963835E-4,3.4666985E-2,-1.1887227E-2,1.1189596E-4,-1.6146058E-2,4.2982068E-2,-4.749438E-2,-1.7519085E-2,1.5763716E-1,-1.07117885E-4,6.2046375E-2,-8.816971E-2,-1.6017358E-3],"categories":[],"categories_nodes":[],"categories_segments":[],"categories_sizes":[],"default_left":[0,0,1,1,1,1,0,0,0,0,0,0,0,0,0],"id":35,"left_children":[1,3,5,7,9,11,13,-1,-1,-1,-1,-1,-1,-1,-1],"loss_changes":[2.469205E-1,4.4716623E-1,2.5083494E-1,3.6275965E-1,3.264176E-1,2.2711723E-1,1.0536792E0,0E0,0E0,0E0,0E0,0E0,0E0,0E0,0E0],"parents":[2147483647,0,0,1,1,2,2,3,3,4,4,5,5,6,6],"right_children":[2,4,6,8,10,12,14,-1,-1,-1,-1,-1,-1,-1,-1],"split_conditions":[3E0,1.609E2,1.617E2,1.6213E2,1.6197E2,1.6209E2,1.6088E2,4.2982068E-2,-4.749438E-2,-1.7519085E-2,1.5763716E-1,-1.07117885E-4,6.2046375E-2,-8.816971E-2,-1.6017358E-3],"split_indices":[1,5,6,4,4,4,5,0,0,0,0,0,0,0,0],"split_type":[0,0,0,0,0,0,0,0,0,0,0,0,0,0,0],"sum_hessian":[1.8612E4,8.65E2,1.7747E4,5.27E2,3.38E2,1.6742E4,1.005E3,4.79E2,4.8E1,3.28E2,1E1,1.6684E4,5.8E1,1.68E2,8.37E2],"tree_param":{"num_deleted":"0","num_feature":"7","num_nodes":"15","size_leaf_vector":"1"}},{"base_weights":[5.4385005E-6,-4.8727817E-3,2.4276834E-3,-3.0180877E-2,1.0447334E-4,2.3870127E-2,-1.6348132E-4,-1.7288662E-1,-2.1667417E-2,-2.9910274E-3,1.5635973E-2,-3.4575433E-2,2.9800653E-2,2.8036588E-3,-1.6602425E-2],"categories":[],"categories_nodes":[],"categories_segments":[],"categories_sizes":[],"default_left":[0,0,0,0,0,0,0,0,0,0,0,0,0,0,0],"id":36,"left_children":[1,3,5,7,9,11,13,-1,-1,-1,-1,-1,-1,-1,-1],"loss_changes":[2.1994758E-1,7.7796197E-1,6.9107044E-1,1.2293975E0,2.4822421E-1,4.6583825E-1,5.4136986E-1,0E0,0E0,0E0,0E0,0E0,0E0,0E0,0E0],"parents":[2147483647,0,0,1,1,2,2,3,3,4,4,5,5,6,6],"right_children":[2,4,6,8,10,12,14,-1,-1,-1,-1,-1,-1,-1,-1],"split_conditions":[2.1E1,1.5994E2,1.5983E2,1E1,1.4E1,1.6066E2,1.4E1,-1.7288662E-1,-2.1667417E-2,-2.9910274E-3,1.5635973E-2,-3.4575433E-2,2.9800653E-2,2.8036588E-3,-1.6602425E-2],"split_indices":[1,4,4,2,2,6,2,0,0,0,0,0,0,0,0],"split_type":[0,0,0,0,0,0,0,0,0,0,0,0,0,0,0],"sum_hessian":[1.8612E4,6.175E3,1.2437E4,1.014E3,5.161E3,1.34E3,1.1097E4,5.6E1,9.58E2,4.304E3,8.57E2,1.23E2,1.217E3,9.401E3,1.696E3],"tree_param":{"num_deleted":"0","num_feature":"7","num_nodes":"15","size_leaf_vector":"1"}},{"base_weights":[-1.3105196E-5,-1.04485145E-2,1.5470836E-3,-2.6410697E-2,1.7835133E-2,4.667011E-2,9.998702E-4,-1.0484114E-2,-1.571738E-1,-2.0235486E-3,1.3253856E-1,1.3567528E-2,2.0204791E-1,2.9864034E-3,-5.334936E-3],"categories":[],"categories_nodes":[],"categories_segments":[],"categories_sizes":[],"default_left":[0,0,0,0,0,0,0,0,0,0,0,0,0,0,0],"id":37,"left_children":[1,3,5,7,9,11,13,-1,-1,-1,-1,-1,-1,-1,-1],"loss_changes":[3.030583E-1,1.0934769E0,3.9978963E-1,3.2222314E0,1.9911164E0,9.950795E-1,2.0136477E-1,0E0,0E0,0E0,0E0,0E0,0E0,0E0,0E0],"parents":[2147483647,0,0,1,1,2,2,3,3,4,4,5,5,6,6],"right_children":[2,4,6,8,10,12,14,-1,-1,-1,-1,-1,-1,-1,-1],"split_conditions":[1E1,4.4E1,1.5949E2,4.1E1,1.6019E2,1.6039E2,4.5E1,-1.0484114E-2,-1.571738E-1,-2.0235486E-3,1.3253856E-1,1.3567528E-2,2.0204791E-1,2.9864034E-3,-5.334936E-3],"split_indices":[2,1,5,1,5,6,1,0,0,0,0,0,0,0,0],"split_type":[0,0,0,0,0,0,0,0,0,0,0,0,0,0,0],"sum_hessian":[1.8612E4,2.42E3,1.6192E4,1.547E3,8.73E2,1.93E2,1.5999E4,1.38E3,1.67E2,7.45E2,1.28E2,1.6E2,3.3E1,1.218E4,3.819E3],"tree_param":{"num_deleted":"0","num_feature":"7","num_nodes":"15","size_leaf_vector":"1"}},{"base_weights":[8.029863E-6,-5.913464E-4,2.0781798E-2,-1.3278365E-2,1.2997385E-3,3.682725E-2,-4.564876E-2,-2.390322E-2,7.7323187E-3,3.4029618E-2,1.2626893E-4,5.3369943E-2,1.5639603E-2,2.6665712E-2,-8.900213E-2],"categories":[],"categories_nodes":[],"categories_segments":[],"categories_sizes":[],"default_left":[1,0,0,0,0,0,0,0,0,0,0,0,0,0,0],"id":38,"left_children":[1,3,5,7,9,11,13,-1,-1,-1,-1,-1,-1,-1,-1],"loss_changes":[2.3176838E-1,4.3408465E-1,5.5808526E-1,5.2411854E-1,6.0476047E-1,1.4672613E-1,3.2215112E-1,0E0,0E0,0E0,0E0,0E0,0E0,0E0,0E0],"parents":[2147483647,0,0,1,1,2,2,3,3,4,4,5,5,6,6],"right_children":[2,4,6,8,10,12,14,-1,-1,-1,-1,-1,-1,-1,-1],"split_conditions":[1.619E2,9E0,1.6131E2,1.6127E2,1.1E1,1.6175E2,3E0,-2.390322E-2,7.7323187E-3,3.4029618E-2,1.2626893E-4,5.3369943E-2,1.5639603E-2,2.6665712E-2,-8.900213E-2],"split_indices":[6,1,4,4,1,5,1,0,0,0,0,0,0,0,0],"split_type":[0,0,0,0,0,0,0,0,0,0,0,0,0,0,0],"sum_hessian":[1.8612E4,1.8091E4,5.21E2,2.346E3,1.5745E4,4.2E2,1.01E2,1.558E3,7.88E2,5.44E2,1.5201E4,2.35E2,1.85E2,3.8E1,6.3E1],"tree_param":{"num_deleted":"0","num_feature":"7","num_nodes":"15","size_leaf_vector":"1"}},{"base_weights":[5.195022E-6,5.3270496E-3,-2.6482346E-3,-3.5825912E-3,2.373473E-2,5.0912715E-2,-4.0052766E-3,-1.3230997E-3,-6.336122E-2,-1.20162964E-4,3.560037E-2,-5.9627745E-2,8.442119E-2,-1.4263619E-3,-2.0795317E-2],"categories":[],"categories_nodes":[],"categories_segments":[],"categories_sizes":[],"default_left":[0,1,0,1,0,0,0,0,0,0,0,0,0,0,0],"id":39,"left_children":[1,3,5,7,9,11,13,-1,-1,-1,-1,-1,-1,-1,-1],"loss_changes":[2.628514E-1,1.015773E0,9.030175E-1,5.636954E-1,5.717727E-1,1.1421747E0,5.2455086E-1,0E0,0E0,0E0,0E0,0E0,0E0,0E0,0E0],"parents":[2147483647,0,0,1,1,2,2,3,3,4,4,5,5,6,6],"right_children":[2,4,6,8,10,12,14,-1,-1,-1,-1,-1,-1,-1,-1],"split_conditions":[1.6061E2,1.5995E2,1.5992E2,1.5984E2,2.9E1,1.6219E2,1.4E1,-1.3230997E-3,-6.336122E-2,-1.20162964E-4,3.560037E-2,-5.9627745E-2,8.442119E-2,-1.4263619E-3,-2.0795317E-2],"split_indices":[4,6,6,6,1,4,2,0,0,0,0,0,0,0,0],"split_type":[0,0,0,0,0,0,0,0,0,0,0,0,0,0,0],"sum_hessian":[1.8612E4,6.192E3,1.242E4,4.173E3,2.019E3,3.06E2,1.2114E4,4.022E3,1.51E2,6.71E2,1.348E3,7.1E1,2.35E2,1.0502E4,1.612E3],"tree_param":{"num_deleted":"0","num_feature":"7","num_nodes":"15","size_leaf_vector":"1"}},{"base_weights":[-4.3104665E-6,-3.473194E-2,6.3794944E-4,-2.5087738E-2,-1.0802753E-1,2.407054E-3,-9.116311E-3,-4.531239E-2,1.1815722E-2,-3.5898846E-2,-1.1757884E-1,-9.159447E-3,4.370038E-3,-1.5093558E-4,-4.7977347E-2],"categories":[],"categories_nodes":[],"categories_segments":[],"categories_sizes":[],"default_left":[0,0,0,0,1,0,0,0,0,0,0,0,0,0,0],"id":40,"left_children":[1,3,5,7,9,11,13,-1,-1,-1,-1,-1,-1,-1,-1],"loss_changes":[4.1516954E-1,2.362144E-1,3.1539822E-1,2.244433E-1,2.2647083E-2,3.513068E-1,9.7761375E-1,0E0,0E0,0E0,0E0,0E0,0E0,0E0,0E0],"parents":[2147483647,0,0,1,1,2,2,3,3,4,4,5,5,6,6],"right_children":[2,4,6,8,10,12,14,-1,-1,-1,-1,-1,-1,-1,-1],"split_conditions":[1.5962E2,2.4E1,5.1E1,2E1,1.6015E2,1.6036E2,1.4E1,-4.531239E-2,1.1815722E-2,-3.5898846E-2,-1.1757884E-1,-9.159447E-3,4.370038E-3,-1.5093558E-4,-4.7977347E-2],"split_indices":[6,1,1,1,5,6,2,0,0,0,0,0,0,0,0],"split_type":[0,0,0,0,0,0,0,0,0,0,0,0,0,0,0],"sum_hessian":[1.8612E4,3.37E2,1.8275E4,2.99E2,3.8E1,1.547E4,2.805E3,1.93E2,1.06E2,5E0,3.3E1,2.244E3,1.3226E4,2.28E3,5.25E2],"tree_param":{"num_deleted":"0","num_feature":"7","num_nodes":"15","size_leaf_vector":"1"}},{"base_weights":[-8.907041E-6,2.0660828E-3,-5.3218002E-3,1.8286264E-2,9.1632316E-4,-1.9733716E-2,4.1202808E-4,2.872476E-3,3.3079874E-2,4.5435857E-3,-8.566838E-3,4.3221567E-2,-3.2298725E-2,6.8342346E-3,-9.558882E-3],"categories":[],"categories_nodes":[],"categories_segments":[],"categories_sizes":[],"default_left":[1,0,1,0,1,0,0,0,0,0,0,0,0,0,0],"id":41,"left_children":[1,3,5,7,9,11,13,-1,-1,-1,-1,-1,-1,-1,-1],"loss_changes":[2.0520444E-1,2.4962291E-1,4.3202624E-1,2.0193562E-1,4.300472E-1,1.1784542E0,2.3962118E-1,0E0,0E0,0E0,0E0,0E0,0E0,0E0,0E0],"parents":[2147483647,0,0,1,1,2,2,3,3,4,4,5,5,6,6],"right_children":[2,4,6,8,10,12,14,-1,-1,-1,-1,-1,-1,-1,-1],"split_conditions":[1.6096E2,4E0,1.6073E2,2E0,1.6082E2,1.2E1,3.7E1,2.872476E-3,3.3079874E-2,4.5435857E-3,-8.566838E-3,4.3221567E-2,-3.2298725E-2,6.8342346E-3,-9.558882E-3],"split_indices":[5,1,4,1,4,2,1,0,0,0,0,0,0,0,0],"split_type":[0,0,0,0,0,0,0,0,0,0,0,0,0,0,0],"sum_hessian":[1.8612E4,1.3385E4,5.227E3,8.85E2,1.25E4,1.487E3,3.74E3,4.34E2,4.51E2,9.042E3,3.458E3,2.47E2,1.24E3,2.275E3,1.465E3],"tree_param":{"num_deleted":"0","num_feature":"7","num_nodes":"15","size_leaf_vector":"1"}},{"base_weights":[-1.2985506E-6,-7.7027823E-3,2.0129357E-3,-1.7675234E-2,1.7326009E-2,7.6786014E-3,-2.263672E-3,-1.3352992E-1,-1.5007333E-2,1.0094331E-1,7.650528E-3,1.5991852E-2,-3.1661128E-3,8.7207614E-4,-1.1984764E-2],"categories":[],"categories_nodes":[],"categories_segments":[],"categories_sizes":[],"default_left":[0,0,0,0,0,1,0,0,0,0,0,0,0,0,0],"id":42,"left_children":[1,3,5,7,9,11,13,-1,-1,-1,-1,-1,-1,-1,-1],"loss_changes":[2.887514E-1,9.6350646E-1,3.575285E-1,8.510813E-1,8.891691E-1,5.7226336E-1,2.563411E-1,0E0,0E0,0E0,0E0,0E0,0E0,0E0,0E0],"parents":[2147483647,0,0,1,1,2,2,3,3,4,4,5,5,6,6],"right_children":[2,4,6,8,10,12,14,-1,-1,-1,-1,-1,-1,-1,-1],"split_conditions":[1.6031E2,4.8E1,1.6117E2,1.5923E2,4.9E1,1.6082E2,4.4E1,-1.3352992E-1,-1.5007333E-2,1.0094331E-1,7.650528E-3,1.5991852E-2,-3.1661128E-3,8.7207614E-4,-1.1984764E-2],"split_indices":[5,1,5,5,1,4,1,0,0,0,0,0,0,0,0],"split_type":[0,0,0,0,0,0,0,0,0,0,0,0,0,0,0],"sum_hessian":[1.8612E4,3.858E3,1.4754E4,2.759E3,1.099E3,6.346E3,8.408E3,6.1E1,2.698E3,1.13E2,9.86E2,3.592E3,2.754E3,6.358E3,2.05E3],"tree_param":{"num_deleted":"0","num_feature":"7","num_nodes":"15","size_leaf_vector":"1"}},{"base_weights":[-1.5707216E-6,-2.902837E-3,8.567888E-3,1.2602547E-2,-3.9513046E-3,2.268811E-3,2.9374648E-2,-6.2188534E-3,4.420021E-2,-2.6613373E-2,-2.158211E-3,-8.086749E-2,4.5597893E-3,4.616953E-2,-7.0011825E-4],"categories":[],"categories_nodes":[],"categories_segments":[],"categories_sizes":[],"default_left":[1,0,0,0,0,0,0,0,0,0,0,0,0,0,0],"id":43,"left_children":[1,3,5,7,9,11,13,-1,-1,-1,-1,-1,-1,-1,-1],"loss_changes":[4.627865E-1,2.261182E-1,6.169797E-1,5.242165E-1,5.292568E-1,6.8889415E-1,5.5261415E-1,0E0,0E0,0E0,0E0,0E0,0E0,0E0,0E0],"parents":[2147483647,0,0,1,1,2,2,3,3,4,4,5,5,6,6],"right_children":[2,4,6,8,10,12,14,-1,-1,-1,-1,-1,-1,-1,-1],"split_conditions":[1.6101E2,1.5995E2,5E1,2.7E1,1.6047E2,1.6018E2,5.6E1,-6.2188534E-3,4.420021E-2,-2.6613373E-2,-2.158211E-3,-8.086749E-2,4.5597893E-3,4.616953E-2,-7.0011825E-4],"split_indices":[4,6,1,1,6,5,1,0,0,0,0,0,0,0,0],"split_type":[0,0,0,0,0,0,0,0,0,0,0,0,0,0,0],"sum_hessian":[1.8612E4,1.3905E4,4.707E3,8.8E2,1.3025E4,3.614E3,1.093E3,5.52E2,3.28E2,9.54E2,1.2071E4,9.6E1,3.518E3,7.01E2,3.92E2],"tree_param":{"num_deleted":"0","num_feature":"7","num_nodes":"15","size_leaf_vector":"1"}},{"base_weights":[-6.07056E-6,1.1664063E-3,-7.50787E-3,-1.8089686E-2,1.7670053E-3,-2.616802E-2,-2.5786765E-4,-5.7369027E-2,2.0942844E-2,9.668864E-3,4.3639474E-4,-8.434314E-3,-5.1307496E-2,9.416504E-3,-3.297251E-2],"categories":[],"categories_nodes":[],"categories_segments":[],"categories_sizes":[],"default_left":[1,0,0,0,0,0,0,0,0,0,0,0,0,0,0],"id":44,"left_children":[1,3,5,7,9,11,13,-1,-1,-1,-1,-1,-1,-1,-1],"loss_changes":[1.6372287E-1,1.8620838E-1,3.4037316E-1,7.4785626E-1,1.6414498E-1,3.1342182E-1,5.7411337E-1,0E0,0E0,0E0,0E0,0E0,0E0,0E0,0E0],"parents":[2147483647,0,0,1,1,2,2,3,3,4,4,5,5,6,6],"right_children":[2,4,6,8,10,12,14,-1,-1,-1,-1,-1,-1,-1,-1],"split_conditions":[1.614E2,1.5949E2,1.8E1,1.606E2,1.6014E2,1E1,5.1E1,-5.7369027E-2,2.0942844E-2,9.668864E-3,4.3639474E-4,-8.434314E-3,-5.1307496E-2,9.416504E-3,-3.297251E-2],"split_indices":[5,5,1,4,5,1,1,0,0,0,0,0,0,0,0],"split_type":[0,0,0,0,0,0,0,0,0,0,0,0,0,0,0],"sum_hessian":[1.8612E4,1.6097E4,2.515E3,4.86E2,1.5611E4,7.03E2,1.812E3,2.42E2,2.44E2,2.249E3,1.3362E4,4.13E2,2.9E2,1.399E3,4.13E2],"tree_param":{"num_deleted":"0","num_feature":"7","num_nodes":"15","size_leaf_vector":"1"}},{"base_weights":[-1.0806499E-5,-5.3844735E-4,2.689596E-2,1.4335147E-4,-1.8773157E-2,1.4448138E-2,6.7964666E-2,1.2705676E-3,-9.887558E-3,2.1889651E-2,-3.5328336E-2,4.5289524E-2,7.086345E-3,8.002197E-2,-4.0064495E-2],"categories":[],"categories_nodes":[],"categories_segments":[],"categories_sizes":[],"default_left":[1,1,0,0,0,0,0,0,0,0,0,0,0,0,0],"id":45,"left_children":[1,3,5,7,9,11,13,-1,-1,-1,-1,-1,-1,-1,-1],"loss_changes":[2.642653E-1,2.2696865E-1,1.8203333E-1,1.9900452E-1,4.4372576E-1,6.2344283E-2,1.1131689E-1,0E0,0E0,0E0,0E0,0E0,0E0,0E0,0E0],"parents":[2147483647,0,0,1,1,2,2,3,3,4,4,5,5,6,6],"right_children":[2,4,6,8,10,12,14,-1,-1,-1,-1,-1,-1,-1,-1],"split_conditions":[1.6197E2,1.6185E2,5.8E1,1.5E1,2.9E1,1E0,1.6109E2,1.2705676E-3,-9.887558E-3,2.1889651E-2,-3.5328336E-2,4.5289524E-2,7.086345E-3,8.002197E-2,-4.0064495E-2],"split_indices":[6,5,1,2,1,1,4,0,0,0,0,0,0,0,0],"split_type":[0,0,0,0,0,0,0,0,0,0,0,0,0,0,0],"sum_hessian":[1.8612E4,1.8255E4,3.57E2,1.7598E4,6.57E2,2.75E2,8.2E1,1.5821E4,1.777E3,1.9E2,4.67E2,5.2E1,2.23E2,7.4E1,8E0],"tree_param":{"num_deleted":"0","num_feature":"7","num_nodes":"15","size_leaf_vector":"1"}},{"base_weights":[7.189576E-6,9.395102E-3,-7.9479883E-4,5.5410173E-3,1.2305546E-1,-1.042216E-2,5.4714904E-4,9.57311E-3,-4.3951016E-2,1.8634139E-1,2.5138091E-2,-6.659435E-3,-7.584836E-2,2.1187048E-3,-5.2442504E-3],"categories":[],"categories_nodes":[],"categories_segments":[],"categories_sizes":[],"default_left":[0,0,0,0,0,0,1,0,0,0,0,0,0,0,0],"id":46,"left_children":[1,3,5,7,9,11,13,-1,-1,-1,-1,-1,-1,-1,-1],"loss_changes":[1.4014469E-1,6.410711E-1,2.2156078E-1,2.833919E-1,2.9276174E-1,5.159822E-1,1.37007E-1,0E0,0E0,0E0,0E0,0E0,0E0,0E0,0E0],"parents":[2147483647,0,0,1,1,2,2,3,3,4,4,5,5,6,6],"right_children":[2,4,6,8,10,12,14,-1,-1,-1,-1,-1,-1,-1,-1],"split_conditions":[1.5955E2,3.1E1,1E1,2.8E1,4.8E1,5.8E1,1.6129E2,9.57311E-3,-4.3951016E-2,1.8634139E-1,2.5138091E-2,-6.659435E-3,-7.584836E-2,2.1187048E-3,-5.2442504E-3],"split_indices":[4,1,2,1,1,1,4,0,0,0,0,0,0,0,0],"split_type":[0,0,0,0,0,0,0,0,0,0,0,0,0,0,0],"sum_hessian":[1.8612E4,1.464E3,1.7148E4,1.417E3,4.7E1,2.097E3,1.5051E4,1.311E3,1.06E2,2.8E1,1.9E1,1.984E3,1.13E2,1.1839E4,3.212E3],"tree_param":{"num_deleted":"0","num_feature":"7","num_nodes":"15","size_leaf_vector":"1"}},{"base_weights":[3.9989454E-6,3.6661963E-3,-3.152664E-3,5.213227E-4,2.5224017E-2,-2.7219916E-3,-6.332354E-2,6.8554883E-3,-7.77784E-3,5.257436E-2,-2.7149513E-2,-3.4879486E-3,7.658724E-2,-1.2045217E-2,-1.3717335E-1],"categories":[],"categories_nodes":[],"categories_segments":[],"categories_sizes":[],"default_left":[0,1,1,0,0,1,0,0,0,0,0,0,0,0,0],"id":47,"left_children":[1,3,5,7,9,11,13,-1,-1,-1,-1,-1,-1,-1,-1],"loss_changes":[2.1518385E-1,5.841903E-1,2.588893E-1,3.9541927E-1,1.5728076E0,6.033071E-1,2.6721722E-1,0E0,0E0,0E0,0E0,0E0,0E0,0E0,0E0],"parents":[2147483647,0,0,1,1,2,2,3,3,4,4,5,5,6,6],"right_children":[2,4,6,8,10,12,14,-1,-1,-1,-1,-1,-1,-1,-1],"split_conditions":[1.2E1,1.6072E2,1.614E2,1.6135E2,5.1E1,1.6135E2,3.9E1,6.8554883E-3,-7.77784E-3,5.257436E-2,-2.7149513E-2,-3.4879486E-3,7.658724E-2,-1.2045217E-2,-1.3717335E-1],"split_indices":[2,6,4,4,1,4,1,0,0,0,0,0,0,0,0],"split_type":[0,0,0,0,0,0,0,0,0,0,0,0,0,0,0],"sum_hessian":[1.8612E4,8.616E3,9.996E3,7.52E3,1.096E3,9.926E3,7E1,4.265E3,3.255E3,7.2E2,3.76E2,9.832E3,9.4E1,4.2E1,2.8E1],"tree_param":{"num_deleted":"0","num_feature":"7","num_nodes":"15","size_leaf_vector":"1"}},{"base_weights":[1.907656E-6,-1.318996E-3,1.2087382E-2,1.8986112E-3,-8.191717E-3,5.0194234E-2,5.4481295E-3,-1.8266632E-3,1.703149E-2,2.0442123E-3,-2.8745277E-2,4.052116E-2,1.0370543E-1,1.1702832E-2,-1.5142721E-1],"categories":[],"categories_nodes":[],"categories_segments":[],"categories_sizes":[],"default_left":[0,1,0,0,0,0,0,0,0,0,0,0,0,0,0],"id":48,"left_children":[1,3,5,7,9,11,13,-1,-1,-1,-1,-1,-1,-1,-1],"loss_changes":[2.9714918E-1,3.710837E-1,4.6373042E-1,6.443874E-1,1.1258278E0,1.365897E-1,1.535401E0,0E0,0E0,0E0,0E0,0E0,0E0,0E0,0E0],"parents":[2147483647,0,0,1,1,2,2,3,3,4,4,5,5,6,6],"right_children":[2,4,6,8,10,12,14,-1,-1,-1,-1,-1,-1,-1,-1],"split_conditions":[5.4E1,1.6091E2,1.6003E2,4.2E1,4.1E1,1.5987E2,1.4E1,-1.8266632E-3,1.703149E-2,2.0442123E-3,-2.8745277E-2,4.052116E-2,1.0370543E-1,1.1702832E-2,-1.5142721E-1],"split_indices":[1,6,4,1,1,4,2,0,0,0,0,0,0,0,0],"split_type":[0,0,0,0,0,0,0,0,0,0,0,0,0,0,0],"sum_hessian":[1.8612E4,1.6779E4,1.833E3,1.1429E4,5.35E3,2.71E2,1.562E3,9.172E3,2.257E3,3.572E3,1.778E3,2.31E2,4E1,1.503E3,5.9E1],"tree_param":{"num_deleted":"0","num_feature":"7","num_nodes":"15","size_leaf_vector":"1"}},{"base_weights":[2.1298197E-6,-7.730779E-3,3.249491E-3,-3.1598008E-3,-2.172812E-2,-1.0859154E-3,1.6658053E-2,-8.203597E-3,2.1590145E-2,-7.5104763E-3,-1.0428132E-1,5.367209E-3,-9.330831E-3,2.9483026E-2,-5.354154E-3],"categories":[],"categories_nodes":[],"categories_segments":[],"categories_sizes":[],"default_left":[0,0,0,1,1,0,0,0,0,0,0,0,0,0,0],"id":49,"left_children":[1,3,5,7,9,11,13,-1,-1,-1,-1,-1,-1,-1,-1],"loss_changes":[4.674264E-1,3.5214978E-1,7.620648E-1,5.183617E-1,1.5895969E0,5.271566E-1,9.0438384E-1,0E0,0E0,0E0,0E0,0E0,0E0,0E0,0E0],"parents":[2147483647,0,0,1,1,2,2,3,3,4,4,5,5,6,6],"right_children":[2,4,6,8,10,12,14,-1,-1,-1,-1,-1,-1,-1,-1],"split_conditions":[1.1E1,1.6133E2,1.619E2,1.5992E2,1.6026E2,3.6E1,1.4E1,-8.203597E-3,2.1590145E-2,-7.5104763E-3,-1.0428132E-1,5.367209E-3,-9.330831E-3,2.9483026E-2,-5.354154E-3],"split_indices":[2,4,4,6,5,1,2,0,0,0,0,0,0,0,0],"split_type":[0,0,0,0,0,0,0,0,0,0,0,0,0,0,0],"sum_hessian":[1.8612E4,5.504E3,1.3108E4,4.15E3,1.354E3,9.906E3,3.202E3,3.448E3,7.02E2,1.156E3,1.98E2,5.557E3,4.349E3,2.023E3,1.179E3],"tree_param":{"num_deleted":"0","num_feature":"7","num_nodes":"15","size_leaf_vector":"1"}},{"base_weights":[-2.3831353E-6,-3.0907984E-3,6.8380036E-3,5.079827E-3,-7.0607336E-3,1.1711304E-2,-1.3380358E-2,-1.1987046E-3,1.9246452E-2,-4.3776594E-3,-2.8027544E-2,4.6631396E-3,4.0443413E-2,-1.0604382E-2,-4.5522854E-1],"categories":[],"categories_nodes":[],"categories_segments":[],"categories_sizes":[],"default_left":[0,1,0,0,0,0,1,0,0,0,0,0,0,0,0],"id":50,"left_children":[1,3,5,7,9,11,13,-1,-1,-1,-1,-1,-1,-1,-1],"loss_changes":[3.932385E-1,4.160061E-1,5.7064617E-1,3.7306088E-1,4.8541862E-1,9.447167E-1,1.3750527E0,0E0,0E0,0E0,0E0,0E0,0E0,0E0,0E0],"parents":[2147483647,0,0,1,1,2,2,3,3,4,4,5,5,6,6],"right_children":[2,4,6,8,10,12,14,-1,-1,-1,-1,-1,-1,-1,-1],"split_conditions":[4.2E1,1.5991E2,1.4E1,1.4E1,3.7E1,1.3E1,1.6054E2,-1.1987046E-3,1.9246452E-2,-4.3776594E-3,-2.8027544E-2,4.6631396E-3,4.0443413E-2,-1.0604382E-2,-4.5522854E-1],"split_indices":[1,5,2,2,1,2,4,0,0,0,0,0,0,0,0],"split_type":[0,0,0,0,0,0,0,0,0,0,0,0,0,0,0],"sum_hessian":[1.8612E4,1.2823E4,5.789E3,4.193E3,8.63E3,4.665E3,1.124E3,2.906E3,1.287E3,7.652E3,9.78E2,3.747E3,9.18E2,1.118E3,6E0],"tree_param":{"num_deleted":"0","num_feature":"7","num_nodes":"15","size_leaf_vector":"1"}},{"base_weights":[-2.1968786E-5,3.8105673E-3,-6.3894335E-3,4.8887223E-2,3.2844003E-3,-4.0780506E-4,-2.3844836E-2,-1.4095666E-2,8.8999495E-2,-2.729417E-3,7.3278616E-3,-1.54834455E-2,1.54577E-2,-1.3128478E-3,-5.4582104E-2],"categories":[],"categories_nodes":[],"categories_segments":[],"categories_sizes":[],"default_left":[0,0,1,0,1,0,0,0,0,0,0,0,0,0,0],"id":51,"left_children":[1,3,5,7,9,11,13,-1,-1,-1,-1,-1,-1,-1,-1],"loss_changes":[4.5424744E-1,2.7544093E-1,7.302459E-1,3.3979034E-1,2.7934524E-1,1.246381E0,1.2361689E0,0E0,0E0,0E0,0E0,0E0,0E0,0E0,0E0],"parents":[2147483647,0,0,1,1,2,2,3,3,4,4,5,5,6,6],"right_children":[2,4,6,8,10,12,14,-1,-1,-1,-1,-1,-1,-1,-1],"split_conditions":[1.3E1,1.5921E2,1.6083E2,2.4E1,1.6035E2,3.1E1,2E1,-1.4095666E-2,8.8999495E-2,-2.729417E-3,7.3278616E-3,-1.54834455E-2,1.54577E-2,-1.3128478E-3,-5.4582104E-2],"split_indices":[2,4,4,1,4,1,1,0,0,0,0,0,0,0,0],"split_type":[0,0,0,0,0,0,0,0,0,0,0,0,0,0,0],"sum_hessian":[1.8612E4,1.1619E4,6.993E3,1.33E2,1.1486E4,5.209E3,1.784E3,5.2E1,8.1E1,4.618E3,6.868E3,2.671E3,2.538E3,1.03E3,7.54E2],"tree_param":{"num_deleted":"0","num_feature":"7","num_nodes":"15","size_leaf_vector":"1"}},{"base_weights":[3.6628307E-6,1.5944222E-3,-7.477391E-3,7.743601E-3,-2.208707E-3,-1.9795388E-2,2.9181852E-3,4.2900432E-2,4.8777834E-3,-5.5907466E-3,1.0737109E-2,-2.8591549E-2,1.4029987E-2,4.30838E-2,-1.5129338E-3],"categories":[],"categories_nodes":[],"categories_segments":[],"categories_sizes":[],"default_left":[1,0,0,0,1,0,0,0,0,0,0,0,0,0,0],"id":52,"left_children":[1,3,5,7,9,11,13,-1,-1,-1,-1,-1,-1,-1,-1],"loss_changes":[2.2151697E-1,3.589941E-1,4.180217E-1,5.9080815E-1,4.1534424E-1,4.4491607E-1,3.152653E-1,0E0,0E0,0E0,0E0,0E0,0E0,0E0,0E0],"parents":[2147483647,0,0,1,1,2,2,3,3,4,4,5,5,6,6],"right_children":[2,4,6,8,10,12,14,-1,-1,-1,-1,-1,-1,-1,-1],"split_conditions":[1.6128E2,2.3E1,1.6159E2,1E1,1.6085E2,5.2E1,1.6164E2,4.2900432E-2,4.8777834E-3,-5.5907466E-3,1.0737109E-2,-2.8591549E-2,1.4029987E-2,4.30838E-2,-1.5129338E-3],"split_indices":[4,1,5,2,4,1,5,0,0,0,0,0,0,0,0],"split_type":[0,0,0,0,0,0,0,0,0,0,0,0,0,0,0],"sum_hessian":[1.8612E4,1.5349E4,3.263E3,5.865E3,9.484E3,1.493E3,1.77E3,4.41E2,5.424E3,7.52E3,1.964E3,1.185E3,3.08E2,1.75E2,1.595E3],"tree_param":{"num_deleted":"0","num_feature":"7","num_nodes":"15","size_leaf_vector":"1"}},{"base_weights":[-2.4347824E-7,3.1155117E-3,-3.831029E-3,4.2440062E-3,-2.2768212E-2,-4.094003E-2,-2.9385595E-3,1.0554504E-4,9.503038E-3,6.918764E-2,-3.0104442E-2,-5.1392674E-2,1.2361654E-1,3.5677323E-4,-1.395889E-2],"categories":[],"categories_nodes":[],"categories_segments":[],"categories_sizes":[],"default_left":[0,1,0,1,0,0,0,0,0,0,0,0,0,0,0],"id":53,"left_children":[1,3,5,7,9,11,13,-1,-1,-1,-1,-1,-1,-1,-1],"loss_changes":[2.221728E-1,2.999336E-1,2.763873E-1,2.1409442E-1,2.914902E-1,3.4348297E-1,2.9612285E-1,0E0,0E0,0E0,0E0,0E0,0E0,0E0,0E0],"parents":[2147483647,0,0,1,1,2,2,3,3,4,4,5,5,6,6],"right_children":[2,4,6,8,10,12,14,-1,-1,-1,-1,-1,-1,-1,-1],"split_conditions":[1.6119E2,1.6163E2,2E0,1.6062E2,1.6093E2,1.4E1,4.5E1,1.0554504E-4,9.503038E-3,6.918764E-2,-3.0104442E-2,-5.1392674E-2,1.2361654E-1,3.5677323E-4,-1.395889E-2],"split_indices":[5,6,1,6,4,2,1,0,0,0,0,0,0,0,0],"split_type":[0,0,0,0,0,0,0,0,0,0,0,0,0,0,0],"sum_hessian":[1.8612E4,1.0264E4,8.348E3,9.836E3,4.28E2,1.95E2,8.153E3,5.505E3,4.331E3,3.1E1,3.97E2,1.84E2,1.1E1,6.277E3,1.876E3],"tree_param":{"num_deleted":"0","num_feature":"7","num_nodes":"15","size_leaf_vector":"1"}},{"base_weights":[6.928882E-6,6.1183583E-2,-1.7436984E-4,-1.222556E-1,8.6140536E-2,-5.343001E-4,2.6294937E-2,5.0571218E-2,1.018538E-1,-1.5588843E-3,8.072902E-3,1.9917404E-2,6.471994E-2],"categories":[],"categories_nodes":[],"categories_segments":[],"categories_sizes":[],"default_left":[0,0,1,0,0,1,0,0,0,0,0,0,0],"id":54,"left_children":[1,3,5,-1,7,9,11,-1,-1,-1,-1,-1,-1],"loss_changes":[2.0645209E-1,2.623257E-1,1.768276E-1,0E0,2.2235751E-2,1.614937E-1,5.9730068E-2,0E0,0E0,0E0,0E0,0E0,0E0],"parents":[2147483647,0,0,1,1,2,2,4,4,5,5,6,6],"right_children":[2,4,6,-1,8,10,12,-1,-1,-1,-1,-1,-1],"split_conditions":[1.589E2,4.6E1,1.6201E2,-1.222556E-1,1.6053E2,1.616E2,1.6132E2,5.0571218E-2,1.018538E-1,-1.5588843E-3,8.072902E-3,1.9917404E-2,6.471994E-2],"split_indices":[5,1,6,0,4,4,4,0,0,0,0,0,0],"split_type":[0,0,0,0,0,0,0,0,0,0,0,0,0],"sum_hessian":[1.8612E4,5.4E1,1.8558E4,6E0,4.8E1,1.831E4,2.48E2,1.6E1,3.2E1,1.6363E4,1.947E3,2.14E2,3.4E1],"tree_param":{"num_deleted":"0","num_feature":"7","num_nodes":"13","size_leaf_vector":"1"}},{"base_weights":[4.5080365E-6,-2.841064E-3,2.09901E-3,-7.396598E-4,-2.374041E-2,7.447316E-4,3.397088E-2,2.5007552E-3,-1.1560199E-2,-3.6278667E-3,-5.2605964E-2,-1.2890087E-1,1.174577E-3,1.4216115E-1,1.7368237E-2],"categories":[],"categories_nodes":[],"categories_segments":[],"categories_sizes":[],"default_left":[0,0,0,1,0,0,0,0,0,0,0,0,0,0,0],"id":55,"left_children":[1,3,5,7,9,11,13,-1,-1,-1,-1,-1,-1,-1,-1],"loss_changes":[1.10940486E-1,3.4658307E-1,4.6277258E-1,2.51501E-1,4.1839275E-1,5.733652E-1,7.824898E-1,0E0,0E0,0E0,0E0,0E0,0E0,0E0,0E0],"parents":[2147483647,0,0,1,1,2,2,3,3,4,4,5,5,6,6],"right_children":[2,4,6,8,10,12,14,-1,-1,-1,-1,-1,-1,-1,-1],"split_conditions":[2.6E1,2.4E1,1.5E1,1.6098E2,1.3E1,1.594E2,2.7E1,2.5007552E-3,-1.1560199E-2,-3.6278667E-3,-5.2605964E-2,-1.2890087E-1,1.174577E-3,1.4216115E-1,1.7368237E-2],"split_indices":[1,1,2,6,2,4,1,0,0,0,0,0,0,0,0],"split_type":[0,0,0,0,0,0,0,0,0,0,0,0,0,0,0],"sum_hessian":[1.8612E4,7.891E3,1.0721E4,7.171E3,7.2E2,1.0285E4,4.36E2,5.519E3,1.652E3,4.25E2,2.95E2,3.3E1,1.0252E4,5.7E1,3.79E2],"tree_param":{"num_deleted":"0","num_feature":"7","num_nodes":"15","size_leaf_vector":"1"}},{"base_weights":[-1.706807E-6,-1.678461E-2,7.500197E-4,-2.6248954E-2,1.8206561E-3,1.8931298E-2,3.7716626E-4,2.4733972E-3,-3.6998283E-2,-4.664321E-3,1.20736256E-1,8.371075E-3,6.7311525E-2,-4.4973582E-4,8.757747E-3],"categories":[],"categories_nodes":[],"categories_segments":[],"categories_sizes":[],"default_left":[0,1,0,0,0,0,1,0,0,0,0,0,0,0,0],"id":56,"left_children":[1,3,5,7,9,11,13,-1,-1,-1,-1,-1,-1,-1,-1],"loss_changes":[2.3483706E-1,1.405649E-1,1.2076667E-1,1.6341814E-1,2.0877768E-1,1.8234086E-1,1.20993406E-1,0E0,0E0,0E0,0E0,0E0,0E0,0E0,0E0],"parents":[2147483647,0,0,1,1,2,2,3,3,4,4,5,5,6,6],"right_children":[2,4,6,8,10,12,14,-1,-1,-1,-1,-1,-1,-1,-1],"split_conditions":[1.5925E2,1.6039E2,1.5935E2,1E1,2.6E1,2.4E1,1.6163E2,2.4733972E-3,-3.6998283E-2,-4.664321E-3,1.20736256E-1,8.371075E-3,6.7311525E-2,-4.4973582E-4,8.757747E-3],"split_indices":[4,6,4,2,1,1,6,0,0,0,0,0,0,0,0],"split_type":[0,0,0,0,0,0,0,0,0,0,0,0,0,0,0],"sum_hessian":[1.8612E4,7.97E2,1.7815E4,5.28E2,2.69E2,3.57E2,1.7458E4,1.44E2,3.84E2,2.56E2,1.3E1,2.94E2,6.3E1,1.5891E4,1.567E3],"tree_param":{"num_deleted":"0","num_feature":"7","num_nodes":"15","size_leaf_vector":"1"}},{"base_weights":[2.7372855E-6,-1.472731E-2,3.5271957E-4,-5.0835083E-3,-7.4434154E-2,1.5188037E-2,-3.4345366E-4,-5.076911E-2,1.0054727E-2,-1.9881113E-1,-5.6932803E-2,-4.5318604E-3,9.349404E-2,5.6673395E-3,-3.0487336E-3],"categories":[],"categories_nodes":[],"categories_segments":[],"categories_sizes":[],"default_left":[0,0,0,0,0,0,0,0,0,0,0,0,0,0,0],"id":57,"left_children":[1,3,5,7,9,11,13,-1,-1,-1,-1,-1,-1,-1,-1],"loss_changes":[9.595996E-2,2.4836761E-1,1.87788E-1,2.5847706E-1,1.19287044E-1,1.2589357E0,2.8243622E-1,0E0,0E0,0E0,0E0,0E0,0E0,0E0,0E0],"parents":[2147483647,0,0,1,1,2,2,3,3,4,4,5,5,6,6],"right_children":[2,4,6,8,10,12,14,-1,-1,-1,-1,-1,-1,-1,-1],"split_conditions":[1.5943E2,1.5936E2,1.5992E2,1.599E2,1.6016E2,1.6219E2,1.6061E2,-5.076911E-2,1.0054727E-2,-1.9881113E-1,-5.6932803E-2,-4.5318604E-3,9.349404E-2,5.6673395E-3,-3.0487336E-3],"split_indices":[5,5,6,6,4,4,4,0,0,0,0,0,0,0,0],"split_type":[0,0,0,0,0,0,0,0,0,0,0,0,0,0,0],"sum_hessian":[1.8612E4,4.31E2,1.8181E4,3.72E2,5.9E1,8.14E2,1.7367E4,9.2E1,2.8E2,6E0,5.3E1,6.51E2,1.63E2,5.39E3,1.1977E4],"tree_param":{"num_deleted":"0","num_feature":"7","num_nodes":"15","size_leaf_vector":"1"}},{"base_weights":[-7.233845E-6,-5.116104E-3,2.1381883E-3,-1.5145309E-2,8.078374E-3,-7.3235594E-3,3.9019044E-3,-8.960441E-3,-5.500165E-2,4.296283E-2,1.7317323E-3,-3.8105322E-3,-4.444551E-2,5.4730447E-3,-1.25420755E-2],"categories":[],"categories_nodes":[],"categories_segments":[],"categories_sizes":[],"default_left":[0,0,0,0,0,0,0,0,0,0,0,0,0,0,0],"id":58,"left_children":[1,3,5,7,9,11,13,-1,-1,-1,-1,-1,-1,-1,-1],"loss_changes":[2.0402214E-1,7.2859967E-1,2.1878944E-1,7.705787E-1,5.264127E-1,2.6847613E-1,2.8555426E-1,0E0,0E0,0E0,0E0,0E0,0E0,0E0,0E0],"parents":[2147483647,0,0,1,1,2,2,3,3,4,4,5,5,6,6],"right_children":[2,4,6,8,10,12,14,-1,-1,-1,-1,-1,-1,-1,-1],"split_conditions":[1.1E1,3.7E1,1.603E2,3.3E1,1.6012E2,1.6018E2,5.4E1,-8.960441E-3,-5.500165E-2,4.296283E-2,1.7317323E-3,-3.8105322E-3,-4.444551E-2,5.4730447E-3,-1.25420755E-2],"split_indices":[2,1,4,1,4,4,1,0,0,0,0,0,0,0,0],"split_type":[0,0,0,0,0,0,0,0,0,0,0,0,0,0,0],"sum_hessian":[1.8612E4,5.504E3,1.3108E4,3.127E3,2.377E3,2.059E3,1.1049E4,2.708E3,4.19E2,3.65E2,2.012E3,1.882E3,1.77E2,1.0086E4,9.63E2],"tree_param":{"num_deleted":"0","num_feature":"7","num_nodes":"15","size_leaf_vector":"1"}},{"base_weights":[-5.83364E-6,4.974167E-3,-2.1961397E-3,6.845211E-3,-2.5610901E-2,-1.32458275E-2,-8.8096596E-4,4.0315143E-3,3.992335E-2,-3.367706E-2,2.5864664E-2,3.7382583E-3,-3.2756828E-2,-2.8797279E-3,7.892929E-3],"categories":[],"categories_nodes":[],"categories_segments":[],"categories_sizes":[],"default_left":[0,1,0,0,1,1,0,0,0,0,0,0,0,0,0],"id":59,"left_children":[1,3,5,7,9,11,13,-1,-1,-1,-1,-1,-1,-1,-1],"loss_changes":[2.0303638E-1,3.255625E-1,1.8786138E-1,4.9861112E-1,1.3705999E-1,4.5576516E-1,2.0264441E-1,0E0,0E0,0E0,0E0,0E0,0E0,0E0,0E0],"parents":[2147483647,0,0,1,1,2,2,3,3,4,4,5,5,6,6],"right_children":[2,4,6,8,10,12,14,-1,-1,-1,-1,-1,-1,-1,-1],"split_conditions":[1.6045E2,1.6072E2,1.6026E2,1.6035E2,1.6091E2,1.5992E2,4.8E1,4.0315143E-3,3.992335E-2,-3.367706E-2,2.5864664E-2,3.7382583E-3,-3.2756828E-2,-2.8797279E-3,7.892929E-3],"split_indices":[4,5,5,4,6,6,1,0,0,0,0,0,0,0,0],"split_type":[0,0,0,0,0,0,0,0,0,0,0,0,0,0,0],"sum_hessian":[1.8612E4,5.685E3,1.2927E4,5.358E3,3.27E2,1.374E3,1.1553E4,4.939E3,4.19E2,2.83E2,4.4E1,7.35E2,6.39E2,9.41E3,2.143E3],"tree_param":{"num_deleted":"0","num_feature":"7","num_nodes":"15","size_leaf_vector":"1"}},{"base_weights":[4.3465375E-6,-1.0536064E-2,1.5802331E-3,-1.9540726E-3,-4.0569406E-2,2.7498638E-3,-5.975415E-3,-9.682213E-3,2.7390303E-2,-1.23433374E-1,-2.4965866E-2,1.1970403E-3,1.0153867E-2,5.3041685E-2,-7.3631997E-3],"categories":[],"categories_nodes":[],"categories_segments":[],"categories_sizes":[],"default_left":[0,0,1,0,1,0,0,0,0,0,0,0,0,0,0],"id":60,"left_children":[1,3,5,7,9,11,13,-1,-1,-1,-1,-1,-1,-1,-1],"loss_changes":[3.091877E-1,6.2392354E-1,1.4311911E-1,4.275139E-1,6.9253683E-1,1.6121185E-1,1.7820206E-1,0E0,0E0,0E0,0E0,0E0,0E0,0E0,0E0],"parents":[2147483647,0,0,1,1,2,2,3,3,4,4,5,5,6,6],"right_children":[2,4,6,8,10,12,14,-1,-1,-1,-1,-1,-1,-1,-1],"split_conditions":[1E1,5E1,1.615E2,4.3E1,1.5923E2,4.9E1,1.6011E2,-9.682213E-3,2.7390303E-2,-1.23433374E-1,-2.4965866E-2,1.1970403E-3,1.0153867E-2,5.3041685E-2,-7.3631997E-3],"split_indices":[2,1,5,1,5,1,6,0,0,0,0,0,0,0,0],"split_type":[0,0,0,0,0,0,0,0,0,0,0,0,0,0,0],"sum_hessian":[1.8612E4,2.42E3,1.6192E4,1.883E3,5.37E2,1.4022E4,2.17E3,1.491E3,3.92E2,8.4E1,4.53E2,1.1592E4,2.43E3,4.9E1,2.121E3],"tree_param":{"num_deleted":"0","num_feature":"7","num_nodes":"15","size_leaf_vector":"1"}},{"base_weights":[2.479051E-6,2.8892572E-3,-2.4858043E-3,9.1751677E-4,1.7623091E-2,7.0250843E-4,-1.0892349E-2,5.161858E-3,-1.0050966E-2,9.002026E-2,7.4693738E-3,-3.982497E-2,1.6286863E-3,-5.671702E-3,-9.47766E-2],"categories":[],"categories_nodes":[],"categories_segments":[],"categories_sizes":[],"default_left":[0,1,0,1,0,0,1,0,0,0,0,0,0,0,0],"id":61,"left_children":[1,3,5,7,9,11,13,-1,-1,-1,-1,-1,-1,-1,-1],"loss_changes":[1.3370663E-1,2.5031883E-1,2.679542E-1,3.5390875E-1,7.4692476E-1,2.721608E-1,1.2033323E0,0E0,0E0,0E0,0E0,0E0,0E0,0E0,0E0],"parents":[2147483647,0,0,1,1,2,2,3,3,4,4,5,5,6,6],"right_children":[2,4,6,8,10,12,14,-1,-1,-1,-1,-1,-1,-1,-1],"split_conditions":[1.2E1,1.6077E2,4.3E1,1.6135E2,1.6156E2,1.6062E2,1.6134E2,5.161858E-3,-1.0050966E-2,9.002026E-2,7.4693738E-3,-3.982497E-2,1.6286863E-3,-5.671702E-3,-9.47766E-2],"split_indices":[2,6,1,4,5,6,6,0,0,0,0,0,0,0,0],"split_type":[0,0,0,0,0,0,0,0,0,0,0,0,0,0,0],"sum_hessian":[1.8612E4,8.616E3,9.996E3,7.6E3,1.016E3,7.248E3,2.748E3,5.48E3,2.12E3,1.24E2,8.92E2,1.61E2,7.087E3,2.588E3,1.6E2],"tree_param":{"num_deleted":"0","num_feature":"7","num_nodes":"15","size_leaf_vector":"1"}},{"base_weights":[-1.983077E-6,-5.5484317E-4,1.1021016E-2,3.623186E-4,-1.1102458E-2,2.235785E-2,-3.8100327E-3,-1.6046544E-3,5.4425774E-3,2.1735119E-2,-1.6733436E-2,5.6723982E-2,1.295256E-2,8.64608E-3,-5.0094232E-2],"categories":[],"categories_nodes":[],"categories_segments":[],"categories_sizes":[],"default_left":[1,1,0,1,0,1,0,0,0,0,0,0,0,0,0],"id":62,"left_children":[1,3,5,7,9,11,13,-1,-1,-1,-1,-1,-1,-1,-1],"loss_changes":[1.1343702E-1,1.7147335E-1,1.4955911E-1,1.629702E-1,2.6256275E-1,1.621699E-1,2.229703E-1,0E0,0E0,0E0,0E0,0E0,0E0,0E0,0E0],"parents":[2147483647,0,0,1,1,2,2,3,3,4,4,5,5,6,6],"right_children":[2,4,6,8,10,12,14,-1,-1,-1,-1,-1,-1,-1,-1],"split_conditions":[1.6178E2,1.6145E2,1.6196E2,1.6081E2,1.6122E2,1.6016E2,1.6069E2,-1.6046544E-3,5.4425774E-3,2.1735119E-2,-1.6733436E-2,5.6723982E-2,1.295256E-2,8.64608E-3,-5.0094232E-2],"split_indices":[5,5,5,5,6,6,6,0,0,0,0,0,0,0,0],"split_type":[0,0,0,0,0,0,0,0,0,0,0,0,0,0,0],"sum_hessian":[1.8612E4,1.7724E4,8.88E2,1.6307E4,1.417E3,5.03E2,3.85E2,1.1756E4,4.551E3,2.07E2,1.21E3,1.07E2,3.96E2,3.04E2,8.1E1],"tree_param":{"num_deleted":"0","num_feature":"7","num_nodes":"15","size_leaf_vector":"1"}},{"base_weights":[-4.197335E-7,-3.7870117E-4,2.1903992E-2,-5.1620973E-6,-2.110088E-2,3.9023783E-3,5.2907616E-2,-1.2182135E-3,3.835278E-3,3.0116102E-2,-4.0626105E-2,1.1032643E-1,-5.8982233E-3,1.4239818E-1,2.2815185E-2],"categories":[],"categories_nodes":[],"categories_segments":[],"categories_sizes":[],"default_left":[0,0,0,1,0,0,0,0,0,0,0,0,0,0,0],"id":63,"left_children":[1,3,5,7,9,11,13,-1,-1,-1,-1,-1,-1,-1,-1],"loss_changes":[1.5423621E-1,1.4163636E-1,1.7615795E-1,8.374392E-2,3.2523096E-1,2.1029769E-1,3.0913785E-1,0E0,0E0,0E0,0E0,0E0,0E0,0E0,0E0],"parents":[2147483647,0,0,1,1,2,2,3,3,4,4,5,5,6,6],"right_children":[2,4,6,8,10,12,14,-1,-1,-1,-1,-1,-1,-1,-1],"split_conditions":[5.9E1,5.8E1,3.8E1,1.6105E2,1.8E1,1.5992E2,1.6025E2,-1.2182135E-3,3.835278E-3,3.0116102E-2,-4.0626105E-2,1.1032643E-1,-5.8982233E-3,1.4239818E-1,2.2815185E-2],"split_indices":[1,1,0,4,0,6,5,0,0,0,0,0,0,0,0],"split_type":[0,0,0,0,0,0,0,0,0,0,0,0,0,0,0],"sum_hessian":[1.8612E4,1.8297E4,3.15E2,1.7974E4,3.23E2,2E2,1.15E2,1.366E4,4.314E3,8.9E1,2.34E2,1.6E1,1.84E2,2.8E1,8.7E1],"tree_param":{"num_deleted":"0","num_feature":"7","num_nodes":"15","size_leaf_vector":"1"}},{"base_weights":[1.710332E-5,1.4095265E-2,-2.7313718E-4,3.3665583E-2,-6.9503784E-3,1.0651492E-3,-3.409412E-3,6.711431E-2,1.7938074E-2,4.2290473E-3,-6.858826E-2,-6.823701E-5,7.2829947E-3,-1.9024674E-2,-6.902049E-4],"categories":[],"categories_nodes":[],"categories_segments":[],"categories_sizes":[],"default_left":[0,0,0,0,1,1,0,0,0,0,0,0,0,0,0],"id":64,"left_children":[1,3,5,7,9,11,13,-1,-1,-1,-1,-1,-1,-1,-1],"loss_changes":[7.6057546E-2,1.5509708E-1,7.655278E-2,1.0137883E-1,1.257019E-1,9.009216E-2,2.3161232E-1,0E0,0E0,0E0,0E0,0E0,0E0,0E0,0E0],"parents":[2147483647,0,0,1,1,2,2,3,3,4,4,5,5,6,6],"right_children":[2,4,6,8,10,12,14,-1,-1,-1,-1,-1,-1,-1,-1],"split_conditions":[1.591E2,1.5981E2,4.2E1,1.6065E2,1.6067E2,1.6134E2,1.6004E2,6.711431E-2,1.7938074E-2,4.2290473E-3,-6.858826E-2,-6.823701E-5,7.2829947E-3,-1.9024674E-2,-6.902049E-4],"split_indices":[4,5,0,6,6,6,4,0,0,0,0,0,0,0,0],"split_type":[0,0,0,0,0,0,0,0,0,0,0,0,0,0,0],"sum_hessian":[1.8612E4,3.75E2,1.8237E4,1.94E2,1.81E2,1.2783E4,5.454E3,6.1E1,1.33E2,1.54E2,2.7E1,1.0813E4,1.97E3,8.08E2,4.646E3],"tree_param":{"num_deleted":"0","num_feature":"7","num_nodes":"15","size_leaf_vector":"1"}},{"base_weights":[-4.023539E-6,3.1174042E-3,-2.103393E-3,8.361148E-3,-9.755041E-3,-9.723989E-3,6.616283E-4,7.4375523E-3,1.07543014E-1,2.397641E-2,-1.3083921E-2,-5.1548786E-2,-3.8464302E-3,1.0031212E-2,-2.887664E-3],"categories":[],"categories_nodes":[],"categories_segments":[],"categories_sizes":[],"default_left":[1,1,1,1,0,0,0,0,0,0,0,0,0,0,0],"id":65,"left_children":[1,3,5,7,9,11,13,-1,-1,-1,-1,-1,-1,-1,-1],"loss_changes":[1.21978104E-1,5.053176E-1,2.3450682E-1,4.864415E-1,2.4364157E-1,7.281893E-1,2.7162576E-1,0E0,0E0,0E0,0E0,0E0,0E0,0E0,0E0],"parents":[2147483647,0,0,1,1,2,2,3,3,4,4,5,5,6,6],"right_children":[2,4,6,8,10,12,14,-1,-1,-1,-1,-1,-1,-1,-1],"split_conditions":[1.6014E2,1.6038E2,1.6004E2,1.6012E2,1.6021E2,1.1E1,1.6082E2,7.4375523E-3,1.07543014E-1,2.397641E-2,-1.3083921E-2,-5.1548786E-2,-3.8464302E-3,1.0031212E-2,-2.887664E-3],"split_indices":[5,4,4,5,6,2,4,0,0,0,0,0,0,0,0],"split_type":[0,0,0,0,0,0,0,0,0,0,0,0,0,0,0],"sum_hessian":[1.8612E4,7.484E3,1.1128E4,5.318E3,2.166E3,2.962E3,8.166E3,5.27E3,4.8E1,1.94E2,1.972E3,3.64E2,2.598E3,2.243E3,5.923E3],"tree_param":{"num_deleted":"0","num_feature":"7","num_nodes":"15","size_leaf_vector":"1"}},{"base_weights":[4.600673E-6,-1.4317846E-3,6.240201E-3,-2.516031E-4,-1.4211504E-2,6.908182E-3,-7.956667E-2,6.445534E-2,-5.755186E-4,3.9104767E-2,-3.340386E-2,2.9047908E-2,4.5561045E-3,-1.7862077E-1,-1.0792452E-2],"categories":[],"categories_nodes":[],"categories_segments":[],"categories_sizes":[],"default_left":[0,0,1,0,0,0,0,0,0,0,0,0,0,0,0],"id":66,"left_children":[1,3,5,7,9,11,13,-1,-1,-1,-1,-1,-1,-1,-1],"loss_changes":[1.6672046E-1,2.2817785E-1,2.0030059E-1,2.9034826E-1,1.3100618E0,1.7999281E-1,1.8200617E-1,0E0,0E0,0E0,0E0,0E0,0E0,0E0,0E0],"parents":[2147483647,0,0,1,1,2,2,3,3,4,4,5,5,6,6],"right_children":[2,4,6,8,10,12,14,-1,-1,-1,-1,-1,-1,-1,-1],"split_conditions":[4.9E1,4.5E1,1.6186E2,1.5949E2,1.6086E2,1.6024E2,1.5995E2,6.445534E-2,-5.755186E-4,3.9104767E-2,-3.340386E-2,2.9047908E-2,4.5561045E-3,-1.7862077E-1,-1.0792452E-2],"split_indices":[1,1,4,5,6,6,6,0,0,0,0,0,0,0,0],"split_type":[0,0,0,0,0,0,0,0,0,0,0,0,0,0,0],"sum_hessian":[1.8612E4,1.5128E4,3.484E3,1.385E4,1.278E3,3.458E3,2.6E1,6.8E1,1.3782E4,3.38E2,9.4E2,3.31E2,3.127E3,1E1,1.6E1],"tree_param":{"num_deleted":"0","num_feature":"7","num_nodes":"15","size_leaf_vector":"1"}},{"base_weights":[-2.7569606E-6,-5.0462605E-3,2.276084E-3,-2.5178727E-3,-1.9869095E-2,-6.536921E-4,6.419046E-3,-5.12674E-3,2.923235E-2,-4.8185536E-3,-5.0659124E-2,-1.3121727E-2,1.3231422E-3,9.310735E-2,5.4274774E-3],"categories":[],"categories_nodes":[],"categories_segments":[],"categories_sizes":[],"default_left":[0,0,0,0,0,0,0,0,0,0,0,0,0,0,0],"id":67,"left_children":[1,3,5,7,9,11,13,-1,-1,-1,-1,-1,-1,-1,-1],"loss_changes":[2.1393706E-1,2.1705928E-1,1.5562487E-1,4.101688E-1,3.9087108E-1,1.8514279E-1,4.5601434E-1,0E0,0E0,0E0,0E0,0E0,0E0,0E0,0E0],"parents":[2147483647,0,0,1,1,2,2,3,3,4,4,5,5,6,6],"right_children":[2,4,6,8,10,12,14,-1,-1,-1,-1,-1,-1,-1,-1],"split_conditions":[1.6087E2,4.8E1,1.6098E2,4.4E1,1.1E1,1.5989E2,1.5962E2,-5.12674E-3,2.923235E-2,-4.8185536E-3,-5.0659124E-2,-1.3121727E-2,1.3231422E-3,9.310735E-2,5.4274774E-3],"split_indices":[6,1,4,1,2,5,5,0,0,0,0,0,0,0,0],"split_type":[0,0,0,0,0,0,0,0,0,0,0,0,0,0,0],"sum_hessian":[1.8612E4,5.792E3,1.282E4,4.949E3,8.43E2,7.51E3,5.31E3,4.574E3,3.75E2,5.67E2,2.76E2,1.027E3,6.483E3,5.9E1,5.251E3],"tree_param":{"num_deleted":"0","num_feature":"7","num_nodes":"15","size_leaf_vector":"1"}},{"base_weights":[2.6069387E-7,-9.208897E-4,6.9299773E-3,3.1388726E-4,-1.7296962E-2,5.2253385E-3,1.2914887E-1,-1.4768436E-3,6.4472957E-3,-5.1114306E-2,-1.0564729E-2,2.242917E-2,-1.0200626E-3,3.4599304E-2,1.3121611E-1],"categories":[],"categories_nodes":[],"categories_segments":[],"categories_sizes":[],"default_left":[1,1,1,0,0,0,0,0,0,0,0,0,0,0,0],"id":68,"left_children":[1,3,5,7,9,11,13,-1,-1,-1,-1,-1,-1,-1,-1],"loss_changes":[1.1881897E-1,3.3223316E-1,4.543376E-1,1.6782312E-1,2.6173156E-1,2.3156649E-1,1.3237596E-3,0E0,0E0,0E0,0E0,0E0,0E0,0E0,0E0],"parents":[2147483647,0,0,1,1,2,2,3,3,4,4,5,5,6,6],"right_children":[2,4,6,8,10,12,14,-1,-1,-1,-1,-1,-1,-1,-1],"split_conditions":[1.615E2,1.6127E2,1.6163E2,4.6E1,1.6069E2,1.3E1,1.6164E2,-1.4768436E-3,6.4472957E-3,-5.1114306E-2,-1.0564729E-2,2.242917E-2,-1.0200626E-3,3.4599304E-2,1.3121611E-1],"split_indices":[4,4,6,1,6,1,6,0,0,0,0,0,0,0,0],"split_type":[0,0,0,0,0,0,0,0,0,0,0,0,0,0,0],"sum_hessian":[1.8612E4,1.6429E4,2.183E3,1.5278E4,1.151E3,2.154E3,2.9E1,1.1826E4,3.452E3,1.9E2,9.61E2,5.73E2,1.581E3,1E0,2.8E1],"tree_param":{"num_deleted":"0","num_feature":"7","num_nodes":"15","size_leaf_vector":"1"}},{"base_weights":[7.651119E-6,3.2218935E-3,-1.5949421E-3,2.015414E-3,1.2651062E-1,-2.2378076E-2,-9.37192E-4,1.6312829E-3,1.13756455E-1,2.4550737E-1,1.0874233E-1,-4.1605018E-2,2.5982779E-2,2.1081467E-3,-5.1881187E-3],"categories":[],"categories_nodes":[],"categories_segments":[],"categories_sizes":[],"default_left":[0,1,0,1,0,0,0,0,0,0,0,0,0,0,0],"id":69,"left_children":[1,3,5,7,9,11,13,-1,-1,-1,-1,-1,-1,-1,-1],"loss_changes":[9.588299E-2,9.209249E-1,1.6977543E-1,2.6310533E-1,1.0016501E-1,3.553467E-1,1.5588784E-1,0E0,0E0,0E0,0E0,0E0,0E0,0E0,0E0],"parents":[2147483647,0,0,1,1,2,2,3,3,4,4,5,5,6,6],"right_children":[2,4,6,8,10,12,14,-1,-1,-1,-1,-1,-1,-1,-1],"split_conditions":[1.6061E2,1.6129E2,1.6068E2,1.6102E2,1.6053E2,4.9E1,3.6E1,1.6312829E-3,1.13756455E-1,2.4550737E-1,1.0874233E-1,-4.1605018E-2,2.5982779E-2,2.1081467E-3,-5.1881187E-3],"split_indices":[4,6,4,5,4,1,1,0,0,0,0,0,0,0,0],"split_type":[0,0,0,0,0,0,0,0,0,0,0,0,0,0,0],"sum_hessian":[1.8612E4,6.192E3,1.242E4,6.133E3,5.9E1,3.8E2,1.204E4,6.113E3,2E1,6E0,5.3E1,2.72E2,1.08E2,7.015E3,5.025E3],"tree_param":{"num_deleted":"0","num_feature":"7","num_nodes":"15","size_leaf_vector":"1"}},{"base_weights":[2.4692956E-5,-1.2149053E-3,3.958605E-3,2.926075E-4,-8.459496E-3,-1.1140251E-2,8.224913E-3,1.6393171E-3,-1.2095266E-2,1.3790292E-2,-1.3502854E-2,-1.0172647E-3,-7.259912E-2,-2.4679394E-3,1.2888051E-2],"categories":[],"categories_nodes":[],"categories_segments":[],"categories_sizes":[],"default_left":[1,1,0,0,0,0,0,0,0,0,0,0,0,0,0],"id":70,"left_children":[1,3,5,7,9,11,13,-1,-1,-1,-1,-1,-1,-1,-1],"loss_changes":[9.077057E-2,1.5458275E-1,2.8738862E-1,1.95493E-1,2.7376306E-1,6.114969E-1,1.7345269E-1,0E0,0E0,0E0,0E0,0E0,0E0,0E0,0E0],"parents":[2147483647,0,0,1,1,2,2,3,3,4,4,5,5,6,6],"right_children":[2,4,6,8,10,12,14,-1,-1,-1,-1,-1,-1,-1,-1],"split_conditions":[1.6105E2,1.6114E2,1.8E1,5.3E1,1.6087E2,1.5E1,1.6098E2,1.6393171E-3,-1.2095266E-2,1.3790292E-2,-1.3502854E-2,-1.0172647E-3,-7.259912E-2,-2.4679394E-3,1.2888051E-2],"split_indices":[4,6,1,1,5,1,5,0,0,0,0,0,0,0,0],"split_type":[0,0,0,0,0,0,0,0,0,0,0,0,0,0,0],"sum_hessian":[1.8612E4,1.4153E4,4.459E3,1.1716E4,2.437E3,9.82E2,3.477E3,1.0568E4,1.148E3,4.5E2,1.987E3,8.44E2,1.38E2,1.056E3,2.421E3],"tree_param":{"num_deleted":"0","num_feature":"7","num_nodes":"15","size_leaf_vector":"1"}},{"base_weights":[-9.591567E-8,-1.233898E-2,3.6574333E-4,-6.068085E-2,-2.4478382E-3,9.942902E-4,-7.627762E-3,-7.5546265E-2,-1.3446311E-2,-1.0882217E-2,1.9298706E-2,3.417416E-4,9.133562E-3,-3.8626897E-3,-2.4696736E-2],"categories":[],"categories_nodes":[],"categories_segments":[],"categories_sizes":[],"default_left":[0,0,1,1,1,1,1,0,0,0,0,0,0,0,0],"id":71,"left_children":[1,3,5,7,9,11,13,-1,-1,-1,-1,-1,-1,-1,-1],"loss_changes":[8.40245E-2,2.5614324E-1,9.0836756E-2,6.2880814E-2,8.201472E-2,8.901909E-2,8.460708E-2,0E0,0E0,0E0,0E0,0E0,0E0,0E0,0E0],"parents":[2147483647,0,0,1,1,2,2,3,3,4,4,5,5,6,6],"right_children":[2,4,6,8,10,12,14,-1,-1,-1,-1,-1,-1,-1,-1],"split_conditions":[1.5955E2,1.6016E2,1.6168E2,1.5976E2,1.6054E2,1.6139E2,1.6042E2,-7.5546265E-2,-1.3446311E-2,-1.0882217E-2,1.9298706E-2,3.417416E-4,9.133562E-3,-3.8626897E-3,-2.4696736E-2],"split_indices":[5,4,4,6,4,4,6,0,0,0,0,0,0,0,0],"split_type":[0,0,0,0,0,0,0,0,0,0,0,0,0,0,0],"sum_hessian":[1.8612E4,5.35E2,1.8077E4,9E1,4.45E2,1.676E4,1.317E3,6.8E1,2.2E1,3.21E2,1.24E2,1.5517E4,1.243E3,1.08E3,2.37E2],"tree_param":{"num_deleted":"0","num_feature":"7","num_nodes":"15","size_leaf_vector":"1"}},{"base_weights":[-8.542233E-7,-3.0748165E-4,1.0626548E-2,5.6456606E-4,-1.090175E-2,1.6906902E-2,-3.8944826E-2,-3.2422313E-4,9.361705E-3,-5.5419267E-3,-1.12347364E-1,2.47539E-2,8.241464E-3,-1.022631E-2,-1.3977756E-1],"categories":[],"categories_nodes":[],"categories_segments":[],"categories_sizes":[],"default_left":[1,1,0,0,0,0,0,0,0,0,0,0,0,0,0],"id":72,"left_children":[1,3,5,7,9,11,13,-1,-1,-1,-1,-1,-1,-1,-1],"loss_changes":[6.0656574E-2,1.6715285E-1,1.6317052E-1,1.3070995E-1,7.475507E-1,3.1346917E-2,1.694208E-1,0E0,0E0,0E0,0E0,0E0,0E0,0E0,0E0],"parents":[2147483647,0,0,1,1,2,2,3,3,4,4,5,5,6,6],"right_children":[2,4,6,8,10,12,14,-1,-1,-1,-1,-1,-1,-1,-1],"split_conditions":[1.619E2,1.6162E2,1.619E2,5.4E1,5.4E1,1.6201E2,1.6119E2,-3.2422313E-4,9.361705E-3,-5.5419267E-3,-1.12347364E-1,2.47539E-2,8.241464E-3,-1.022631E-2,-1.3977756E-1],"split_indices":[6,5,5,1,1,6,4,0,0,0,0,0,0,0,0],"split_type":[0,0,0,0,0,0,0,0,0,0,0,0,0,0,0],"sum_hessian":[1.8612E4,1.8091E4,5.21E2,1.6716E4,1.375E3,4.63E2,5.8E1,1.5183E4,1.533E3,1.307E3,6.8E1,2.42E2,2.21E2,4.6E1,1.2E1],"tree_param":{"num_deleted":"0","num_feature":"7","num_nodes":"15","size_leaf_vector":"1"}},{"base_weights":[-1.5953154E-5,-6.646522E-3,5.374957E-4,-2.0417437E-2,-2.666633E-4,2.416889E-2,1.2319721E-4,-2.4669413E-3,-5.3069785E-2,-2.7796961E-2,5.954623E-3,-1.1709988E-2,6.316225E-2,-1.8848138E-2,4.4888284E-4],"categories":[],"categories_nodes":[],"categories_segments":[],"categories_sizes":[],"default_left":[0,0,0,0,0,0,0,0,0,0,0,0,0,0,0],"id":73,"left_children":[1,3,5,7,9,11,13,-1,-1,-1,-1,-1,-1,-1,-1],"loss_changes":[6.830735E-2,1.2598075E-1,1.6819699E-1,2.6597017E-1,1.681852E-1,4.148549E-1,1.0433567E-1,0E0,0E0,0E0,0E0,0E0,0E0,0E0,0E0],"parents":[2147483647,0,0,1,1,2,2,3,3,4,4,5,5,6,6],"right_children":[2,4,6,8,10,12,14,-1,-1,-1,-1,-1,-1,-1,-1],"split_conditions":[5E0,1.6035E2,6E0,3.8E1,1.6003E2,2.8E1,7E0,-2.4669413E-3,-5.3069785E-2,-2.7796961E-2,5.954623E-3,-1.1709988E-2,6.316225E-2,-1.8848138E-2,4.4888284E-4],"split_indices":[1,4,1,0,6,0,1,0,0,0,0,0,0,0,0],"split_type":[0,0,0,0,0,0,0,0,0,0,0,0,0,0,0],"sum_hessian":[1.8612E4,1.433E3,1.7179E4,4.53E2,9.8E2,2.95E2,1.6884E4,2.93E2,1.6E2,1.8E2,8E2,1.54E2,1.41E2,2.84E2,1.66E4],"tree_param":{"num_deleted":"0","num_feature":"7","num_nodes":"15","size_leaf_vector":"1"}},{"base_weights":[3.5292046E-6,3.4711915E-3,-1.4530586E-3,9.168421E-3,-3.113715E-4,-3.2098036E-2,-6.886176E-4,2.1101052E-2,-1.4355617E-4,-7.2724978E-3,1.0511916E-2,-1.5535328E-1,-5.8314004E-3,1.7149327E-3,-3.4038024E-3],"categories":[],"categories_nodes":[],"categories_segments":[],"categories_sizes":[],"default_left":[0,0,0,1,0,0,1,0,0,0,0,0,0,0,0],"id":74,"left_children":[1,3,5,7,9,11,13,-1,-1,-1,-1,-1,-1,-1,-1],"loss_changes":[9.401846E-2,1.18657865E-1,3.0704954E-1,2.4412572E-1,2.4945939E-1,1.0318568E0,8.347444E-2,0E0,0E0,0E0,0E0,0E0,0E0,0E0,0E0],"parents":[2147483647,0,0,1,1,2,2,3,3,4,4,5,5,6,6],"right_children":[2,4,6,8,10,12,14,-1,-1,-1,-1,-1,-1,-1,-1],"split_conditions":[1.9E1,1.2E1,2E1,1.6021E2,1.1E1,1E1,1.604E2,2.1101052E-2,-1.4355617E-4,-7.2724978E-3,1.0511916E-2,-1.5535328E-1,-5.8314004E-3,1.7149327E-3,-3.4038024E-3],"split_indices":[1,2,1,4,1,2,5,0,0,0,0,0,0,0,0],"split_type":[0,0,0,0,0,0,0,0,0,0,0,0,0,0,0],"sum_hessian":[1.8612E4,5.505E3,1.3107E4,2.196E3,3.309E3,3.18E2,1.2789E4,9.62E2,1.234E3,2.014E3,1.295E3,5.5E1,2.63E2,6.784E3,6.005E3],"tree_param":{"num_deleted":"0","num_feature":"7","num_nodes":"15","size_leaf_vector":"1"}},{"base_weights":[-5.6434483E-6,-1.383678E-3,4.4288626E-3,6.1316937E-3,-2.7117836E-3,1.3069729E-2,-4.1438146E-3,3.1453896E-2,1.6613322E-3,-1.05115E-2,-9.835889E-4,7.3300414E-3,3.756626E-2,6.0500065E-3,-3.2053802E-2],"categories":[],"categories_nodes":[],"categories_segments":[],"categories_sizes":[],"default_left":[1,0,0,1,0,0,0,0,0,0,0,0,0,0,0],"id":75,"left_children":[1,3,5,7,9,11,13,-1,-1,-1,-1,-1,-1,-1,-1],"loss_changes":[1.13748364E-1,1.4175974E-1,3.2694873E-1,2.4140204E-1,1.6267288E-1,3.0876878E-1,6.306668E-1,0E0,0E0,0E0,0E0,0E0,0E0,0E0,0E0],"parents":[2147483647,0,0,1,1,2,2,3,3,4,4,5,5,6,6],"right_children":[2,4,6,8,10,12,14,-1,-1,-1,-1,-1,-1,-1,-1],"split_conditions":[1.6101E2,1E1,1.6135E2,1.5921E2,2.1E1,3.2438E2,1.6152E2,3.1453896E-2,1.6613322E-3,-1.05115E-2,-9.835889E-4,7.3300414E-3,3.756626E-2,6.0500065E-3,-3.2053802E-2],"split_indices":[5,1,4,4,1,6,6,0,0,0,0,0,0,0,0],"split_type":[0,0,0,0,0,0,0,0,0,0,0,0,0,0,0],"sum_hessian":[1.8612E4,1.42E4,4.412E3,2.132E3,1.2068E4,2.197E3,2.215E3,3.19E2,1.813E3,2.188E3,9.88E3,1.781E3,4.16E2,1.623E3,5.92E2],"tree_param":{"num_deleted":"0","num_feature":"7","num_nodes":"15","size_leaf_vector":"1"}},{"base_weights":[-7.870003E-8,2.1811755E-2,-1.7132326E-4,1.5938478E-2,9.950714E-2,-8.945895E-4,4.321693E-3,3.599859E-2,2.6952904E-3,1.2168884E-1,-5.0064087E-2,-8.669468E-3,2.6123805E-4,-6.0294145E-3,9.386408E-3],"categories":[],"categories_nodes":[],"categories_segments":[],"categories_sizes":[],"default_left":[0,0,1,0,0,0,0,0,0,0,0,0,0,0,0],"id":76,"left_children":[1,3,5,7,9,11,13,-1,-1,-1,-1,-1,-1,-1,-1],"loss_changes":[6.952623E-2,6.458135E-2,6.00216E-2,3.6032714E-2,3.9269686E-2,1.429672E-1,1.3431808E-1,0E0,0E0,0E0,0E0,0E0,0E0,0E0,0E0],"parents":[2147483647,0,0,1,1,2,2,3,3,4,4,5,5,6,6],"right_children":[2,4,6,8,10,12,14,-1,-1,-1,-1,-1,-1,-1,-1],"split_conditions":[1.5932E2,1.6039E2,1.6139E2,1.9E1,1.608E2,1.6062E2,2.1E1,3.599859E-2,2.6952904E-3,1.2168884E-1,-5.0064087E-2,-8.669468E-3,2.6123805E-4,-6.0294145E-3,9.386408E-3],"split_indices":[6,4,4,1,5,6,0,0,0,0,0,0,0,0,0],"split_type":[0,0,0,0,0,0,0,0,0,0,0,0,0,0,0],"sum_hessian":[1.8612E4,1.44E2,1.8468E4,1.35E2,9E0,1.5908E4,2.56E3,5.3E1,8.2E1,8E0,1E0,2.058E3,1.385E4,8.41E2,1.719E3],"tree_param":{"num_deleted":"0","num_feature":"7","num_nodes":"15","size_leaf_vector":"1"}},{"base_weights":[6.843624E-6,1.7459983E-3,-2.6873942E-3,-1.0150214E-2,3.015517E-3,1.8924011E-3,-8.6079305E-3,-3.0456772E-2,1.5560882E-3,3.742738E-3,-2.0248856E-2,-4.5973687E-3,2.2105398E-2,-2.0386908E-2,-1.4482454E-3],"categories":[],"categories_nodes":[],"categories_segments":[],"categories_sizes":[],"default_left":[1,0,0,0,1,0,0,0,0,0,0,0,0,0,0],"id":77,"left_children":[1,3,5,7,9,11,13,-1,-1,-1,-1,-1,-1,-1,-1],"loss_changes":[8.721956E-2,1.7086968E-1,1.980089E-1,2.5939417E-1,1.7301503E-1,5.402913E-1,2.6857352E-1,0E0,0E0,0E0,0E0,0E0,0E0,0E0,0E0],"parents":[2147483647,0,0,1,1,2,2,3,3,4,4,5,5,6,6],"right_children":[2,4,6,8,10,12,14,-1,-1,-1,-1,-1,-1,-1,-1],"split_conditions":[1.6081E2,7E0,3.7E1,1.1E1,1.6154E2,2.6E1,4.7E1,-3.0456772E-2,1.5560882E-3,3.742738E-3,-2.0248856E-2,-4.5973687E-3,2.2105398E-2,-2.0386908E-2,-1.4482454E-3],"split_indices":[4,1,1,2,6,1,1,0,0,0,0,0,0,0,0],"split_type":[0,0,0,0,0,0,0,0,0,0,0,0,0,0,0],"sum_hessian":[1.8612E4,1.1311E4,7.301E3,1.09E3,1.0221E4,4.117E3,3.184E3,3.98E2,6.92E2,9.912E3,3.09E2,3.117E3,1E3,1.203E3,1.981E3],"tree_param":{"num_deleted":"0","num_feature":"7","num_nodes":"15","size_leaf_vector":"1"}},{"base_weights":[-1.3157662E-6,-6.8109157E-3,1.0167811E-3,-8.062262E-2,-5.0290646E-3,-1.1206309E-3,5.0700745E-3,-3.107872E-1,2.0575772E-1,3.072871E-2,-1.1997485E-2,-6.447737E-3,1.7368115E-3,2.0409709E-2,-1.3353626E-3],"categories":[],"categories_nodes":[],"categories_segments":[],"categories_sizes":[],"default_left":[0,0,0,0,0,0,0,0,0,0,0,0,0,0,0],"id":78,"left_children":[1,3,5,7,9,11,13,-1,-1,-1,-1,-1,-1,-1,-1],"loss_changes":[1.2904775E-1,3.1800807E-1,1.4029467E-1,3.8210797E0,5.89668E-1,1.6140898E-1,5.493825E-1,0E0,0E0,0E0,0E0,0E0,0E0,0E0,0E0],"parents":[2147483647,0,0,1,1,2,2,3,3,4,4,5,5,6,6],"right_children":[2,4,6,8,10,12,14,-1,-1,-1,-1,-1,-1,-1,-1],"split_conditions":[1E1,1.6E1,3.9E1,3.3E1,2.3E1,1.6082E2,4.5E1,-3.107872E-1,2.0575772E-1,3.072871E-2,-1.1997485E-2,-6.447737E-3,1.7368115E-3,2.0409709E-2,-1.3353626E-3],"split_indices":[2,1,1,0,1,6,1,0,0,0,0,0,0,0,0],"split_type":[0,0,0,0,0,0,0,0,0,0,0,0,0,0,0],"sum_hessian":[1.8612E4,2.42E3,1.6192E4,5.6E1,2.364E3,1.0602E4,5.59E3,3.1E1,2.5E1,3.85E2,1.979E3,3.701E3,6.901E3,1.646E3,3.944E3],"tree_param":{"num_deleted":"0","num_feature":"7","num_nodes":"15","size_leaf_vector":"1"}},{"base_weights":[-3.0209337E-6,3.90727E-3,-3.3735295E-3,7.908189E-3,-7.7791384E-4,-3.761587E-3,3.3221E-2,1.32506555E-2,1.4869083E-3,-4.2710914E-3,1.4475106E-2,-3.201914E-3,-3.2793585E-2,9.566144E-3,1.1265755E-1],"categories":[],"categories_nodes":[],"categories_segments":[],"categories_sizes":[],"default_left":[0,0,1,1,0,1,1,0,0,0,0,0,0,0,0],"id":79,"left_children":[1,3,5,7,9,11,13,-1,-1,-1,-1,-1,-1,-1,-1],"loss_changes":[2.4532636E-1,1.6153218E-1,1.4209014E-1,1.5943211E-1,2.1158941E-1,1.6064066E-1,1.9622359E-1,0E0,0E0,0E0,0E0,0E0,0E0,0E0,0E0],"parents":[2147483647,0,0,1,1,2,2,3,3,4,4,5,5,6,6],"right_children":[2,4,6,8,10,12,14,-1,-1,-1,-1,-1,-1,-1,-1],"split_conditions":[1.2E1,1.6164E2,1.6137E2,1.5992E2,1.62E2,1.6129E2,1.6098E2,1.32506555E-2,1.4869083E-3,-4.2710914E-3,1.4475106E-2,-3.201914E-3,-3.2793585E-2,9.566144E-3,1.1265755E-1],"split_indices":[2,5,4,6,4,4,5,0,0,0,0,0,0,0,0],"split_type":[0,0,0,0,0,0,0,0,0,0,0,0,0,0,0],"sum_hessian":[1.8612E4,8.616E3,9.996E3,4.647E3,3.969E3,9.892E3,1.04E2,2.536E3,2.111E3,3.23E3,7.39E2,9.706E3,1.86E2,8.1E1,2.3E1],"tree_param":{"num_deleted":"0","num_feature":"7","num_nodes":"15","size_leaf_vector":"1"}},{"base_weights":[8.826701E-6,-2.6120502E-3,2.9557417E-3,-1.8726714E-4,-1.11504495E-2,1.0967327E-2,1.5999518E-3,-1.5416665E-3,2.425288E-2,-7.4961935E-3,-7.981554E-2,3.1309593E-3,2.0527428E-2,-2.4463955E-2,2.6035768E-3],"categories":[],"categories_nodes":[],"categories_segments":[],"categories_sizes":[],"default_left":[1,0,0,0,1,0,0,0,0,0,0,0,0,0,0],"id":80,"left_children":[1,3,5,7,9,11,13,-1,-1,-1,-1,-1,-1,-1,-1],"loss_changes":[1.4376526E-1,2.0397142E-1,9.5155515E-2,2.5406E-1,5.46156E-1,9.492983E-2,1.9612083E-1,0E0,0E0,0E0,0E0,0E0,0E0,0E0,0E0],"parents":[2147483647,0,0,1,1,2,2,3,3,4,4,5,5,6,6],"right_children":[2,4,6,8,10,12,14,-1,-1,-1,-1,-1,-1,-1,-1],"split_conditions":[1.6062E2,1.3E1,1.6037E2,1.2E1,1.6102E2,1.598E2,1.6058E2,-1.5416665E-3,2.425288E-2,-7.4961935E-3,-7.981554E-2,3.1309593E-3,2.0527428E-2,-2.4463955E-2,2.6035768E-3],"split_indices":[6,2,4,2,5,4,4,0,0,0,0,0,0,0,0],"split_type":[0,0,0,0,0,0,0,0,0,0,0,0,0,0,0],"sum_hessian":[1.8612E4,9.851E3,8.761E3,7.673E3,2.178E3,1.267E3,7.494E3,7.271E3,4.02E2,2.069E3,1.09E2,6.97E2,5.7E2,2.77E2,7.217E3],"tree_param":{"num_deleted":"0","num_feature":"7","num_nodes":"15","size_leaf_vector":"1"}},{"base_weights":[-5.896764E-6,2.3984583E-3,-1.3261305E-3,6.493037E-3,-3.9443998E-3,-2.4538904E-3,5.623355E-3,-9.915808E-5,1.46688875E-2,1.8790565E-2,-8.058324E-3,-4.209198E-3,3.8050772E-3,-1.8876617E-5,2.7664408E-2],"categories":[],"categories_nodes":[],"categories_segments":[],"categories_sizes":[],"default_left":[1,0,1,1,0,0,0,0,0,0,0,0,0,0,0],"id":81,"left_children":[1,3,5,7,9,11,13,-1,-1,-1,-1,-1,-1,-1,-1],"loss_changes":[5.908662E-2,1.7138447E-1,9.418741E-2,2.1612763E-1,2.4230038E-1,1.1360453E-1,2.0867781E-1,0E0,0E0,0E0,0E0,0E0,0E0,0E0,0E0],"parents":[2147483647,0,0,1,1,2,2,3,3,4,4,5,5,6,6],"right_children":[2,4,6,8,10,12,14,-1,-1,-1,-1,-1,-1,-1,-1],"split_conditions":[1.5995E2,4E1,1.616E2,1.5983E2,1.6081E2,4.7E1,1.6078E2,-9.915808E-5,1.46688875E-2,1.8790565E-2,-8.058324E-3,-4.209198E-3,3.8050772E-3,-1.8876617E-5,2.7664408E-2],"split_indices":[5,1,4,4,6,1,6,0,0,0,0,0,0,0,0],"split_type":[0,0,0,0,0,0,0,0,0,0,0,0,0,0,0],"sum_hessian":[1.8612E4,6.597E3,1.2015E4,4.009E3,2.588E3,1.0338E4,1.677E3,2.22E3,1.789E3,3.96E2,2.192E3,8.074E3,2.264E3,1.336E3,3.41E2],"tree_param":{"num_deleted":"0","num_feature":"7","num_nodes":"15","size_leaf_vector":"1"}},{"base_weights":[3.7620257E-6,6.9555514E-3,-4.7485981E-4,1.0493886E-1,6.043212E-3,-1.5475523E-3,3.6622882E-3,1.4850616E-1,7.003784E-2,-1.19644165E-1,6.568439E-3,-3.2879142E-3,3.4044662E-3,1.1247278E-2,-2.0356696E-2],"categories":[],"categories_nodes":[],"categories_segments":[],"categories_sizes":[],"default_left":[0,0,0,0,0,0,0,0,0,0,0,0,0,0,0],"id":82,"left_children":[1,3,5,7,9,11,13,-1,-1,-1,-1,-1,-1,-1,-1],"loss_changes":[6.1933935E-2,1.0654931E-1,7.729148E-2,6.3249245E-3,7.9276964E-2,1.19202346E-1,6.535399E-1,0E0,0E0,0E0,0E0,0E0,0E0,0E0,0E0],"parents":[2147483647,0,0,1,1,2,2,3,3,4,4,5,5,6,6],"right_children":[2,4,6,8,10,12,14,-1,-1,-1,-1,-1,-1,-1,-1],"split_conditions":[1.5981E2,4E0,1.4E1,1.598E2,1.5967E2,4.4E1,4.4E1,1.4850616E-1,7.003784E-2,-1.19644165E-1,6.568439E-3,-3.2879142E-3,3.4044662E-3,1.1247278E-2,-2.0356696E-2],"split_indices":[5,1,2,5,6,1,1,0,0,0,0,0,0,0,0],"split_type":[0,0,0,0,0,0,0,0,0,0,0,0,0,0,0],"sum_hessian":[1.8612E4,1.198E3,1.7414E4,1E1,1.188E3,1.3829E4,3.585E3,3E0,7E0,4E0,1.184E3,1.0233E4,3.596E3,2.725E3,8.6E2],"tree_param":{"num_deleted":"0","num_feature":"7","num_nodes":"15","size_leaf_vector":"1"}},{"base_weights":[2.1380176E-6,7.714253E-4,-7.2822957E-3,7.161356E-3,-5.4607535E-4,-8.94134E-3,4.120649E-2,1.7017422E-3,2.6521752E-2,-1.7804805E-3,6.746408E-3,-6.0992155E-2,-7.217609E-3,5.6812286E-2,-6.5382004E-2],"categories":[],"categories_nodes":[],"categories_segments":[],"categories_sizes":[],"default_left":[0,0,0,1,1,0,0,0,0,0,0,0,0,0,0],"id":83,"left_children":[1,3,5,7,9,11,13,-1,-1,-1,-1,-1,-1,-1,-1],"loss_changes":[1.04309574E-1,1.4174178E-1,1.4339973E-1,3.0416024E-1,1.2566924E-1,1.5388094E-1,1.01855E-1,0E0,0E0,0E0,0E0,0E0,0E0,0E0,0E0],"parents":[2147483647,0,0,1,1,2,2,3,3,4,4,5,5,6,6],"right_children":[2,4,6,8,10,12,